432 100
plane 0.090168 -0.66208 0.20471 0.08134 -0.39008 -0.19821 0.30926 -0.11527 -0.0264 0.26597 -1.179 -0.35975 -0.0068296 -0.2287 0.22134 0.14751 -0.27694 -0.64119 -0.7724 -0.42171 -0.048065 0.38755 -0.81647 0.097884 -0.041283 0.12389 0.69812 0.67471 0.25189 0.33102 0.10601 -0.21647 0.12866 -0.42325 -0.18235 -0.12985 0.65099 0.12337 -0.23737 -0.40995 -0.078396 -0.014163 0.24033 0.53042 0.36381 0.35375 -0.0075216 0.51433 -0.076784 -0.5231 -0.20522 0.25122 0.086511 0.22995 0.089486 -0.39979 0.084297 0.41488 -0.13694 0.44853 0.69037 -0.48373 -0.085925 -0.18199 -0.0033933 -0.045743 -0.50286 0.23248 0.4491 -0.30405 -0.56379 0.021233 -0.10522 -0.032955 -0.39318 0.3055 0.22086 0.27804 -0.50493 0.11858 0.24362 -0.13472 0.032963 0.24721 -0.37863 -0.34735 -0.44216 0.57306 0.2071 0.3212 -0.26303 -0.26675 0.30706 0.13305 0.044016 -0.0075709 -0.67593 0.16462 0.81796 0.12775
stupid 0.2901 -0.087869 -0.022487 -0.19978 -0.038213 0.27517 0.32624 0.32571 0.66734 0.43074 -0.42084 0.13939 0.20286 0.16714 0.4732 -0.27944 0.16138 -0.41365 -0.53225 0.22769 -0.21236 0.43362 0.013657 -0.31122 0.32089 0.59589 -0.0039048 -0.094286 -0.27993 0.18486 0.4081 -0.12374 -0.2651 -0.02293 -0.23671 0.26433 0.11689 0.28296 0.19092 -0.14212 -0.092777 -0.1846 -0.25136 -0.52947 -0.095198 0.19599 0.24513 0.44259 -4.8645E-4 0.18773 0.31675 -0.46761 -0.54868 0.67937 0.020441 -0.15171 -0.12982 -0.18532 0.082233 0.10113 0.27675 -0.45484 0.41535 0.24703 0.44062 -0.21588 -0.39808 -0.42891 -0.048907 -0.25321 -0.21625 -0.36512 1.1359 -0.084238 -0.4799 -0.079573 -0.13438 -0.46577 0.035498 0.0099928 0.97997 -0.12821 0.75557 0.52553 -0.13842 -0.23051 -0.13913 0.21944 0.91185 0.080746 0.49062 -0.5488 0.46202 0.081758 -0.25033 -0.29671 -0.31739 -0.40384 -0.070113 -0.3487
egg 0.22237 0.47713 0.041213 0.51823 0.70205 -0.79073 -0.057542 -0.039788 -0.033296 -0.34933 -0.62768 0.8784 0.3573 0.22141 -0.042095 -0.28793 0.67461 -0.15804 -0.82167 -0.28716 -0.58878 -0.3723 -0.4132 -0.34998 0.31535 -0.072649 -0.54802 0.10656 -0.35821 0.77642 0.32043 0.14457 0.076306 0.036623 -0.3755 -0.44821 0.72815 -0.36847 -0.0069604 -0.16195 0.58041 0.12064 0.34732 -0.45257 0.050629 -0.13546 -0.069694 0.38432 0.45803 -0.52132 0.06432 -0.03718 0.048468 0.4375 0.021047 0.26666 -0.25168 -0.87224 0.4346 0.53225 0.65241 0.017598 0.21871 0.53344 0.083034 -0.41978 -0.0083878 -0.15869 -0.16758 -0.043079 0.034424 -0.63246 0.34886 0.22945 -0.083667 0.34765 0.13671 0.25223 -0.12696 0.45315 0.43669 -0.0038114 0.17944 -0.12029 -0.30929 1.0314 -0.63081 0.17561 0.29914 0.24391 -0.17005 -0.8883 -0.17717 0.44943 -0.20469 -0.31751 -0.17296 -0.43967 0.34483 0.55143
year -0.20103 -0.29219 -0.19388 -0.081888 0.10825 0.32851 -0.36134 -0.08534 0.063455 -0.1996 -0.48579 0.14775 -0.12869 0.20674 0.21077 -0.36659 0.23022 -0.4014 0.13625 0.025897 -0.11122 -0.2212 -0.43342 0.1549 0.15518 -0.29699 0.20829 0.025339 -0.062875 -0.06576 -0.08675 0.79014 0.3005 -0.43936 -0.35397 0.028662 0.35006 -0.19195 -0.35567 0.18265 -0.21852 0.33441 -0.10006 -0.28357 -0.14875 -0.15309 -0.0044333 0.63234 0.39903 0.056208 0.32397 -0.29812 0.12371 0.10396 -0.32358 0.2026 0.25361 0.19802 0.12299 0.053406 0.068376 0.28353 0.26941 -0.0091138 0.4263 0.073135 -0.31292 0.10456 -0.055457 -0.24401 -0.088931 0.21157 0.11065 -0.22805 -0.0298 0.019097 -0.084924 0.3543 -0.27669 0.25001 0.21296 0.16078 -0.12614 0.26387 0.23013 0.1262 -0.1138 0.58881 -0.073408 0.031524 0.22147 -0.013749 0.19287 -0.52442 -0.17474 -0.039856 -0.12404 -0.6079 -0.066984 -0.1953
psychiatry -0.37136 0.11804 0.16175 -0.36171 0.20097 0.20975 0.16427 -0.43755 0.70391 -0.37345 -0.46958 0.14252 0.033646 -0.48728 0.11664 0.48796 0.060465 -0.6475 0.39726 -0.41779 0.097161 -0.35619 -0.59213 -0.071109 0.011574 0.24193 0.5762 -0.16652 -0.56324 0.5127 0.48115 -0.56679 -0.13557 0.18779 -1.2329 -0.0030375 -0.12345 0.45554 0.4783 -0.54761 0.37298 0.90206 -0.13748 0.070468 0.97298 -0.18779 0.21325 0.12025 0.038616 1.2658 0.16338 -0.11438 -0.26833 0.30859 -0.46235 0.65495 -0.060922 -0.015051 0.6166 0.65516 0.61362 -0.55265 0.50983 -0.074134 0.75285 -0.056496 0.0068047 0.15397 -0.48778 0.22011 0.23599 0.3641 0.4034 -0.45425 0.11137 -0.13235 -0.45367 0.32594 0.57262 0.48555 -0.22706 0.41586 0.41324 0.075929 -0.15319 0.17946 -0.389 0.017686 0.20111 -0.19054 0.028275 -0.19509 -0.036118 0.63199 -0.2464 -0.13025 -0.82012 -0.25897 0.28856 0.12661
asylum 0.023476 0.60478 0.35919 0.33123 -0.095907 -0.10391 -0.46539 0.054174 0.76981 -0.47984 -0.82148 0.038446 0.40921 0.11016 0.16475 0.0021803 -0.35019 -0.015108 -0.60152 -0.2684 0.3636 0.27653 -0.43676 -0.19815 0.49778 0.12206 0.72985 -0.2029 -0.1788 0.50057 -0.16557 0.036344 -0.22645 -0.26001 -0.80132 0.19044 0.29197 -0.029869 -0.10334 0.26171 -0.55569 0.080805 -0.16016 -0.26121 0.66345 0.68509 -0.11292 0.52404 0.12855 0.088967 0.14896 0.25917 -0.0777 0.26322 0.71279 -0.27934 0.32029 0.80317 -0.28694 -0.19275 0.63984 -0.18359 0.20184 -0.73041 0.091725 -0.050816 -0.64197 -0.057692 -0.2618 0.20761 0.50309 0.26458 -0.16923 0.17417 -0.29447 0.021424 -0.87053 0.69868 0.11406 0.66145 0.16352 0.47792 -0.14414 -0.0089322 -0.068521 -0.24778 0.27475 0.22483 0.080421 0.25267 -0.2555 -0.67713 0.67122 0.6378 0.046667 -0.53184 0.24271 -0.74231 0.14966 -0.58952
manslaughter -0.40609 -0.1156 0.20204 -0.095696 -0.47787 -0.1396 -0.44457 -0.43479 0.84374 0.47124 -0.58559 0.53573 0.21828 0.86233 0.25682 0.024599 -0.1132 0.24053 -0.66421 -0.25005 0.52309 -0.97219 -0.67048 0.1573 -0.075836 0.1663 0.46949 -0.0058661 -0.30499 0.05237 0.44632 -0.45496 -0.66672 -0.17961 -1.1418 0.11641 0.39559 0.12736 0.082173 -0.53304 -0.18403 0.58715 -0.22726 0.097831 -0.11986 -0.38441 0.0085848 0.67076 -0.20186 0.22025 0.18205 0.021714 -0.36534 -0.01243 -0.51818 0.41543 -0.41895 -0.17123 -0.04332 0.25485 1.1306 0.55588 0.020296 0.045112 -0.15408 -0.28727 0.28895 -0.077628 -0.41687 -0.27806 0.3302 0.52927 0.11595 -0.44634 -0.067965 0.31801 -0.70525 -0.048404 0.39508 0.40223 -0.089608 0.315 0.37696 0.11404 -0.78745 0.47572 0.43675 0.11196 0.51922 -0.012386 -0.24559 0.34989 -0.13824 -0.078541 -0.11723 -0.39752 -0.84181 -0.47837 1.0399 -0.72066
music -0.5529 -0.11489 0.060444 -0.26505 0.28049 0.43746 0.0021073 0.26077 0.038409 -0.41109 -0.065846 0.40989 0.19668 0.35574 -0.52957 -0.27429 0.21375 -0.63865 -0.36233 -0.43557 -0.087729 -0.0070941 -0.32491 -0.034734 -0.050958 -0.37581 0.3078 0.012284 -0.08292 0.20749 0.10717 -0.54253 -0.11547 -0.17631 -0.33807 -0.058977 -0.37274 -0.013418 -0.45619 -0.80986 -0.038792 0.39081 0.37879 -0.27469 0.21348 -0.1582 0.3185 0.28942 -0.86221 0.36359 0.58913 0.33193 0.34565 0.044462 0.54686 0.24086 0.2354 -0.35272 0.01838 -0.16181 0.62859 0.31209 -0.087064 0.061493 0.16299 -0.29165 -0.09822 0.15745 -0.74504 -0.16754 0.092278 -0.35591 0.39756 0.096353 -0.42145 -0.011196 -0.13816 0.13185 -0.44107 -0.45061 -0.10337 -0.56772 0.48377 0.33265 0.31131 0.15774 -0.70603 0.31677 0.106 -0.12903 -0.25618 -0.44841 0.23144 0.34425 0.040607 -0.77047 0.027182 -0.51923 -0.10455 0.2693
record -0.1693 -0.15901 -0.38025 -0.47687 -0.36555 -0.11601 0.060687 -0.45864 -0.26578 -0.13976 -0.61199 0.044783 0.066888 0.48924 -0.35714 -0.63294 0.61742 -0.071068 -0.037167 -0.28634 -0.34916 0.0054655 -0.28642 -0.17469 0.244 -0.32629 0.43864 0.47179 0.015125 0.12841 -0.11726 0.32222 0.46601 -0.17195 -0.37764 0.017513 -0.34056 0.049844 0.039487 0.0094774 -0.018175 0.11166 0.042966 -0.1644 0.24283 -0.31909 0.67827 0.56987 -0.25306 0.012994 0.82178 0.14489 -0.27448 0.051437 0.33997 0.40058 0.22943 -0.34344 0.70408 -0.25018 0.17028 0.50392 0.13923 0.13516 -0.21527 -0.40051 -0.83091 0.15564 0.26497 -0.38266 -0.48068 0.096019 0.256 -0.29847 -6.2135E-4 0.096121 0.15092 -0.17708 0.051452 0.34901 0.028427 -0.085572 0.32081 -0.14687 0.33939 -0.10029 0.21309 0.64905 -0.27817 -0.30742 0.16829 -0.17318 -0.19535 -0.4293 0.012438 -0.082813 -0.11266 -0.16552 -0.37459 -0.17449
energy 0.011404 -0.36454 0.38094 -0.09075 0.47917 -0.023868 -0.39333 -0.25057 0.21857 -0.21927 -0.34058 0.090729 0.099316 -0.36349 0.59768 -0.013137 -0.18817 -0.2894 -0.26437 -0.71823 -0.31247 -0.13082 -0.0026346 0.27105 -0.15834 -0.67623 0.34251 0.45856 -0.82804 0.18781 -0.23029 0.56737 0.11181 0.89762 0.15311 0.2928 -0.57333 -0.15491 0.10918 -0.60064 -0.009081 -0.38945 -0.0014376 -0.17676 0.50967 0.080206 0.23798 0.1575 -0.15544 -0.047509 0.11731 0.14199 -0.13202 0.098707 -0.51503 -0.013855 -0.0663 -0.15989 -0.26972 -0.41513 0.61784 0.046619 0.057997 -0.027432 0.25017 0.22917 -0.87109 -0.38335 -0.37547 -0.43869 0.21052 0.18834 0.1255 0.41947 -0.23817 0.077552 0.48113 0.14082 -0.30117 0.030287 0.32326 0.27036 0.3417 0.0081678 -0.22593 0.10245 -0.7695 0.59251 0.19358 0.18565 0.12657 -0.67851 -0.28401 -0.4028 0.10376 0.2507 -0.46421 -0.50066 -0.13101 -0.43416
announcement 0.091586 -0.11075 -0.047376 -0.0091838 -0.38067 0.42706 0.080078 -0.14213 -0.04279 -0.073731 -0.63136 -0.19324 -0.17787 0.20256 0.78333 -0.88115 0.022273 -0.19362 0.12576 -0.31263 0.28648 -0.069185 -0.39933 0.047262 -0.57142 -0.26565 0.49504 0.16727 0.11239 -0.34381 -0.45883 0.33743 -0.038359 0.13385 -0.29249 -0.51051 0.19076 -0.39748 -0.18973 -0.48285 0.012241 0.10132 -0.21874 -0.27905 -0.011152 -0.2951 -0.17876 0.43098 0.42976 -0.0031203 0.59383 0.080284 -0.16708 0.14267 0.1005 -0.66492 -0.34058 0.21682 0.50097 -0.088789 0.54136 -0.13859 -0.51655 0.51732 0.11163 -0.051772 -0.012116 0.25044 -0.081753 -0.47207 -0.3641 0.02068 0.1854 0.021438 -0.19323 -0.10291 0.16613 0.31115 0.26959 0.183 -0.22583 0.15741 0.32077 0.38878 0.03981 0.27963 -0.32041 0.3615 0.14566 0.31885 0.12207 -0.41142 0.11697 0.26168 0.11017 0.10393 0.20944 -0.16737 -0.0017616 -0.2107
mile 0.3426 -0.43266 -0.05115 -0.10293 0.075583 -0.9795 -0.71083 -0.38131 -0.010684 -0.019553 0.35038 0.1385 -0.11931 0.38468 -0.069631 -0.097463 0.19832 -0.35684 0.012576 -0.47206 0.16209 -0.16248 0.12145 0.032834 -0.66894 -0.38978 0.14281 0.77726 0.37418 0.40028 -0.23711 0.29533 0.32326 -0.6494 -0.85376 -0.11126 0.39562 0.088259 0.50423 0.43132 -0.13686 0.18998 0.26919 -0.38952 0.41366 0.094487 -0.11055 0.23768 0.12609 -0.66853 -0.32057 0.29512 0.19428 0.90361 -0.24323 0.10022 -0.05653 0.091276 0.054095 -0.15834 0.66644 0.16214 0.553 -0.070923 0.46016 -0.36982 -0.2973 0.34341 -0.079037 -0.16922 -0.265 -0.15798 -0.068757 -0.22059 0.18351 -0.20323 0.16782 0.066317 0.52859 0.038651 -0.047287 0.53516 0.73256 0.087091 -0.18128 -0.99669 -0.21137 0.5 0.51547 0.24456 -0.12127 -0.43932 0.21402 -0.8832 -0.15138 -0.29981 -0.7358 -0.26821 0.29767 0.14602
airport -0.023549 -0.17029 0.38426 -0.059188 -0.65888 -0.18504 -0.1375 -0.29075 0.49878 0.35026 -0.97571 -0.493 -0.29903 0.062273 0.10137 -0.24194 0.041615 -0.63466 -0.56135 -0.52073 -0.076945 0.54018 -0.48555 0.015529 -0.25133 -0.10575 0.75688 0.24486 0.45586 0.095206 0.12614 0.043765 0.22268 -0.6913 -0.35848 -0.25398 0.71967 0.094166 0.11489 -0.18743 -0.082205 -0.0027214 0.50212 0.40877 0.50243 0.006752 0.29033 0.1096 -0.69846 -0.49519 -0.25763 0.2272 0.25987 -0.29733 -0.01749 -0.35008 0.029252 0.61482 -0.41715 0.19034 0.83382 -0.42314 0.062487 -0.36961 -0.15174 0.014204 -0.45582 0.24805 0.34549 -0.076924 0.20563 0.1197 0.19288 0.017416 0.12213 0.40273 0.78106 0.29624 -0.26828 0.16986 -0.095133 0.5325 0.053957 0.029475 -0.024098 -0.34648 -0.46877 0.17961 0.20434 0.39255 -0.20858 -0.47491 0.021707 0.19461 -0.21154 0.11176 -0.5187 -0.40037 0.80853 -0.08265
population -0.38468 0.27013 -0.14937 -0.38187 0.073579 0.024494 -0.59881 -0.080364 -0.14265 -0.37737 -0.45027 0.54611 0.49319 0.19167 -0.13524 0.22076 -0.097375 -0.1091 0.069784 -0.31357 -0.15013 -0.39629 -0.051802 -0.20238 -0.50216 0.5513 0.4616 0.15318 -0.45875 0.65383 -0.15343 0.56134 -0.18189 0.22223 -0.80945 0.18952 0.42844 -0.12172 -0.49659 0.21351 -0.0069555 -0.061819 -0.023596 0.075533 0.14303 0.30215 -0.098267 0.62325 -0.26289 -0.52962 -0.008685 -0.034062 -0.096306 0.79539 0.13187 0.37539 0.037497 0.79399 0.17684 -0.45244 0.70505 -0.32467 0.23323 -0.3666 0.33532 -0.37801 -0.65013 -0.31064 0.13335 0.32119 0.11825 -0.16891 0.20798 -0.57541 0.12361 0.61961 0.7052 0.32576 0.034248 0.88463 0.29785 -0.0092821 -0.14848 -0.17184 -0.036848 -0.28943 -0.14702 0.34056 0.039374 0.068465 0.020174 -0.12602 0.31487 -0.1356 -0.6863 0.068126 -0.44468 -0.53956 0.03865 -0.03675
planning 0.17206 0.16911 0.016485 0.15659 -0.18917 0.74218 -0.018867 -0.18126 0.045653 -0.22129 -0.2416 -0.0027481 -0.58918 0.27573 0.14438 -0.13358 -0.049173 -0.13453 -0.09193 0.049357 -0.31744 0.050989 -0.39935 0.29575 0.35618 0.057702 0.25322 0.037292 0.11085 -0.11719 -0.30378 0.070306 0.14006 -0.0096941 -0.15287 -0.44257 0.031897 -0.13161 -0.066449 0.3548 -0.20688 -0.048183 0.077711 0.21436 0.18512 0.13548 -0.066516 0.26058 -0.31161 0.31307 0.23282 -0.36326 -0.59053 -0.051224 -0.30829 -0.22817 0.10378 0.35069 0.01342 -0.052092 0.7447 -0.30922 -0.091147 0.23112 0.42411 -0.13677 -0.29435 -0.40033 -0.40343 -0.48178 0.1059 0.35186 0.086495 -0.11612 -0.20978 0.25492 0.19734 0.28599 -0.26334 0.10457 -0.33364 0.21384 0.59325 0.069782 -0.11677 -0.10944 -0.28239 0.2886 0.08299 0.38765 -0.043294 -0.051106 0.03271 0.038633 0.0039211 -0.22672 -0.30941 -0.30282 0.13767 -0.64938
canyon -0.066768 -0.24989 0.3871 -0.15369 0.37532 -0.47783 -0.31369 -0.45768 -0.47175 0.36918 -0.15422 -0.2302 0.6726 0.4354 -0.49457 -0.4482 -0.26602 -0.21623 0.096716 -0.09988 -0.56413 -0.24524 -0.06434 -0.070528 0.0062328 -0.31065 0.16914 0.14314 -0.12234 0.33978 -0.37502 -0.16767 -0.076148 -0.34641 -0.42406 0.11696 0.2303 0.2074 0.62742 0.13448 -0.31888 0.076864 0.6103 -0.022471 0.57803 0.21178 0.14493 0.37726 -0.3357 -0.36513 0.060204 0.39675 0.29346 0.19619 -0.49161 0.024401 -0.20627 -0.19106 0.099873 -0.39187 0.69748 0.025931 0.43506 0.13766 0.53322 -0.67884 0.1904 0.10637 0.24215 -0.472 -0.37769 0.10735 -0.09232 0.16255 -0.36969 0.28079 0.3819 0.59884 0.35077 0.10419 0.10744 0.15455 0.21042 0.046752 0.080392 -0.50824 -0.39178 0.33121 0.51881 -0.079715 -0.78927 -0.90061 0.35319 -0.18219 0.3981 -0.19597 -0.91855 0.18039 0.4048 0.66109
delay 0.0082981 0.52437 -0.29098 -0.024686 -0.17155 -0.07813 -0.13358 0.1991 0.17231 -0.31442 -0.65349 0.011077 -0.33569 -0.060644 0.31087 -0.55098 0.24845 -0.27625 -0.64448 -0.074377 0.15604 0.1776 -0.42336 0.4865 0.17035 0.4297 0.92457 -0.03926 0.27931 0.078307 -0.29167 0.24043 -0.31993 -0.045383 -0.29437 -0.25501 0.56366 -0.32099 0.29052 -0.41533 -0.22777 -0.024135 -0.13477 -0.15219 0.27146 0.18547 -0.01947 0.15983 0.32472 -0.085012 0.59442 -0.10121 -0.41642 0.11584 -0.24579 -0.66058 0.19457 -0.18439 0.41061 -0.28348 0.52094 -0.030407 -0.36019 0.922 -0.34209 -0.1427 -0.22527 -0.22116 -0.025372 -0.14903 -0.28119 0.44841 0.1946 -0.18302 0.26651 -0.10784 0.097329 0.39393 0.15007 0.26685 -0.078044 0.51621 0.18698 0.1825 -0.34072 -0.25401 -0.21574 0.22489 0.098371 0.55159 -0.17965 -0.11214 -0.099694 -0.21413 0.57322 -0.47292 0.041686 -0.33647 0.1204 -0.17965
size -0.12248 -0.50811 0.15224 0.20735 0.013846 0.42023 0.23736 -0.24628 -0.088983 -0.61375 -0.090806 0.32468 0.33814 -0.011262 0.17961 -0.62315 -0.24856 -0.27456 -0.18732 -0.37182 -0.37496 -0.46909 0.17917 0.15164 -0.25701 -0.092097 0.58752 0.20606 -0.12417 0.0058697 0.044047 0.024879 0.12993 0.18887 -0.23887 -0.13618 0.35893 -0.24584 -0.10582 0.12991 -0.19021 0.10615 0.15736 0.043486 -0.057881 0.40563 -0.20735 0.36954 0.38103 -0.17898 -0.18271 -0.48658 0.042949 0.37833 -0.032773 0.071853 -0.16745 -0.0088816 0.3831 -0.39594 0.58293 0.088369 0.52039 0.42722 -0.0021472 -0.48507 -0.68487 -0.11644 -0.36914 -0.0026323 0.19941 0.07553 -0.076439 -0.22322 -0.14142 0.58947 1.0582 -0.16302 -0.46499 0.32619 0.27209 0.25827 0.015104 -0.21395 -0.17774 0.021011 0.46271 -0.16216 0.31663 0.67117 0.20385 -0.48969 0.76721 -0.34224 -0.40055 0.15392 -0.62103 -0.053288 0.25188 0.54183
peace 0.21381 0.45272 0.27005 -0.60232 -0.029198 -0.48602 0.24124 -0.092576 0.24425 0.4545 -0.39135 -0.16068 0.13547 -0.013468 0.25851 0.089069 -0.049991 0.44426 -0.11556 -0.21137 0.1699 -0.36549 -0.39357 -0.071065 0.030453 0.54981 0.22543 -0.6182 -0.32548 0.1877 -0.013828 -0.15159 0.19497 0.32619 -0.82795 -1.2707 -0.57209 -0.32725 -0.20598 -0.41165 0.097514 0.088479 0.42023 0.0040562 0.6815 0.20955 0.19997 1.2628 0.22739 -0.084126 -0.071454 -0.10127 0.5935 0.23983 -0.0012607 0.15702 -0.12285 0.40971 -0.11679 -0.83555 0.93757 0.38023 0.45979 0.33115 0.12029 0.15778 0.062748 -0.1144 -0.066477 -0.60343 -0.56 0.43035 0.80451 0.19178 -0.22494 0.2711 0.071854 0.80986 -0.20297 0.030781 -0.0036468 0.13143 -0.39125 0.024839 0.60249 -0.14337 -0.34988 0.60225 0.69761 -0.2058 -0.49689 -0.57253 0.24372 0.37066 0.51974 -0.62588 0.1658 -0.47435 -0.13242 -0.52557
science 0.0455 -0.48639 -0.077487 0.054931 0.70711 0.62421 0.22609 -0.15574 0.15722 -0.084213 -0.27642 0.14967 0.46195 -0.41244 0.22084 0.10292 0.052192 -0.73686 -0.088139 -0.013316 -0.15392 -0.39833 -0.25651 -0.20772 -0.19637 -0.16997 0.43777 -0.11458 -0.85402 0.48979 0.17342 -0.29536 -0.05189 0.47962 -0.31823 -0.28887 -0.070223 -0.27091 0.53418 -0.36739 -0.272 0.32807 0.23796 -0.1582 0.55303 -0.20635 0.35645 0.50428 0.10724 0.44744 0.59388 -0.16754 0.12953 0.58371 -0.19096 0.13237 -0.21623 0.017563 0.011839 0.24631 0.58606 -0.75608 0.18257 -0.082783 0.50796 0.087716 -0.72622 0.098169 -0.3795 0.3264 -0.37815 0.45686 0.088151 -0.54753 -0.48044 0.18719 -0.43263 -0.34889 -0.10034 -0.31003 0.11568 0.39042 -0.019268 -0.082911 -0.203 -0.30575 -0.42764 -0.006303 0.41673 0.02869 -0.080577 -0.33074 -0.015567 0.57422 0.33584 -0.30562 -0.11719 -0.65219 -0.29762 0.046657
dawn 0.28813 -0.11142 0.25877 0.47599 0.028613 -0.3985 -0.43129 0.1603 0.075402 0.46454 -0.17387 -0.19977 0.18975 -0.032427 -0.10572 -0.51103 -0.20604 -0.29425 -0.89938 -0.12783 -0.04964 -0.20807 -0.46619 -0.21316 -0.43828 0.13902 0.088854 0.045158 -0.16959 0.19358 0.030516 0.010084 0.087025 -0.30933 -0.57536 -0.54069 0.66163 0.36215 -0.29421 0.0243 0.061907 0.28673 0.81938 -0.12483 0.14559 0.074361 0.32873 0.18828 -0.23277 -0.24817 0.4271 -0.058152 0.19497 -0.089627 0.11736 -0.17776 -0.27147 0.27528 0.017102 0.1119 0.23192 0.47114 -0.036919 -0.35611 0.30563 -0.73971 -0.14341 0.31354 0.49282 -0.95274 -0.38998 0.29238 0.32294 -0.018539 -0.096756 -0.24829 0.20004 0.32924 0.45567 0.41741 0.17661 0.22198 0.24812 0.39353 -0.10858 -0.49624 -0.60969 0.43944 0.31571 0.24581 0.20192 -0.36096 0.39515 0.0036113 0.036499 -0.057391 0.061414 -0.24359 -0.098073 -0.26189
brother -0.10671 0.17238 0.41553 0.24391 0.12101 0.26518 -0.25793 0.17961 0.12159 -0.2568 -0.24457 0.12126 -0.55712 0.4945 0.30462 0.074423 0.071571 0.50354 -0.099824 -0.47054 0.32518 0.26535 -0.43464 -0.14015 -0.086141 -0.066759 0.47693 0.46346 0.072939 0.36286 -0.0033223 -0.42922 0.39274 0.06306 -0.96004 -0.026876 0.045665 0.31316 -0.19159 -0.47651 -0.069918 0.66549 -0.22596 -0.38464 -0.32466 0.066197 0.15869 0.25172 -0.34606 0.44222 -0.22459 -0.29521 0.31117 0.13916 0.2527 -0.39648 0.024347 0.088114 -0.31876 0.257 0.60978 0.082422 0.01401 -0.091922 0.33779 -0.45464 -0.33126 -0.60071 0.20171 -0.69234 -0.13264 0.74529 0.6145 -0.18468 -0.34463 -0.057669 -0.018278 0.13401 0.37986 0.027462 0.82965 -0.13534 -0.095403 -0.039602 -0.12042 0.24514 -0.092019 0.12559 -0.34173 0.48792 -0.25528 0.056048 0.27724 -0.37507 0.093544 -0.19688 -0.70675 -0.0051472 0.60255 -0.38063
wine -0.24353 -0.22734 0.2122 0.036096 0.15446 0.38887 0.064765 -0.16013 0.2164 0.10294 -0.52384 0.37958 0.27885 0.017309 -0.21445 0.19345 0.26039 -0.13794 -0.16354 -0.40928 -0.58532 0.39382 -0.52918 0.041731 -0.15584 -0.2304 -0.237 0.018081 -0.10346 0.53143 -0.082593 -0.20363 0.026875 0.22089 -0.38724 -0.083103 0.59124 -0.55642 0.25575 -0.68086 -0.26653 -0.047453 0.3921 0.20062 -0.0092518 0.29286 0.63071 0.31578 -0.25902 -0.31698 0.16706 0.62629 0.17694 0.011306 -0.21968 0.19342 -0.12055 -0.27025 0.2816 0.25868 0.79787 0.19706 0.74444 -0.24112 -0.16184 -0.49024 -0.16693 -0.29147 -0.14933 -0.17095 0.79085 -0.039204 -0.23546 0.9346 -0.25892 -0.39865 0.20437 0.52414 -0.072884 0.086539 0.37513 -0.05051 0.22701 0.35187 0.50739 0.78201 -0.37992 0.25423 0.19935 0.10636 -0.2515 -1.0123 0.0021466 -0.30434 -0.70219 -0.5354 -0.29333 -0.47685 0.14238 0.26529
object 0.51231 0.080284 0.44491 0.030652 0.032715 0.024178 0.16671 -0.0053439 0.10944 -0.054948 -0.37651 0.08908 0.72885 -0.020016 0.077322 -0.44722 -0.24649 -0.2378 -0.22336 -0.26303 -0.33407 0.20531 -0.22191 0.16587 -0.085271 -0.21351 0.59395 0.25705 0.12136 0.038509 -0.0012614 -0.19738 -0.065418 0.047764 -0.1199 -0.024995 0.1015 -0.15984 0.082731 -0.069145 -0.16601 0.0051129 0.013024 -0.25368 0.63262 0.17271 -0.42393 0.61762 -0.14249 -0.076393 0.13438 -0.033839 0.036943 0.62527 0.15099 -0.14383 -0.22564 -0.42795 -0.24698 0.28513 0.22274 -0.15099 0.25064 0.063434 0.2655 -0.58628 -0.35729 -0.21909 -0.74623 -0.18693 -0.29632 0.077847 0.17547 -0.10132 -0.24975 -0.085881 0.1572 0.38469 0.13922 -0.11238 0.15215 -0.45005 0.14797 0.08818 -0.041687 -0.13661 -0.18206 0.23735 0.64445 0.20621 0.41062 -0.21434 0.41807 0.0083127 0.41617 -0.15398 -0.5714 -0.074602 0.1157 -0.026573
attitude 0.18188 -0.12801 0.23739 -0.4936 0.39224 -0.33162 0.017313 -0.12699 0.22929 -0.18739 -0.2385 -0.1796 0.10345 -0.02955 0.30454 0.049663 -0.26171 -0.40248 -0.35193 -0.13615 0.10487 0.40578 -0.26605 0.24217 -0.29354 0.51557 0.30094 0.10921 -0.22267 0.015807 0.050349 -0.23862 0.17775 -0.36739 -0.060324 -0.12961 -0.45165 0.1109 -0.19195 -0.35459 -0.01267 0.23332 0.044953 -0.53748 0.16417 -0.125 0.15923 0.0033418 0.020483 -0.13891 0.64543 0.028191 -0.44594 0.79005 0.05629 -0.1835 0.051948 0.31609 0.31365 0.43603 0.78914 -0.47981 0.1852 0.099079 0.27746 0.095194 -0.51515 -0.2745 -0.6959 -0.28363 0.057543 0.11722 0.4793 -0.081629 -0.20076 0.19658 0.32248 -0.1144 0.11934 0.30192 0.38496 0.029582 0.21946 0.10996 0.65834 0.2178 0.20305 0.1053 0.66636 -0.13225 0.2624 -0.37378 0.5712 0.2977 -0.21606 0.24738 -0.16234 -0.022636 -0.23571 -0.21874
treatment 0.081485 0.20869 -0.14849 0.089533 0.22902 -0.50036 -0.75434 -0.42815 0.53041 -0.14698 -0.55962 0.0038248 -0.36758 -0.41017 0.11292 0.21066 0.1397 -0.38482 -0.18805 -0.12551 0.060758 -0.02716 -0.040577 0.57463 0.14275 -0.025688 0.61246 -0.1613 -0.244 0.60999 -0.47853 0.39633 -0.23159 0.36715 -0.38852 0.2106 0.394 0.26403 -0.17142 0.017906 0.002728 0.36632 -0.36588 0.096014 0.33091 -0.21549 -0.33054 0.31602 0.093968 0.65186 0.54519 0.25652 -0.093606 0.59776 -0.17259 0.36125 0.19966 0.17701 0.30294 0.17438 0.86912 -0.14618 -0.0329 0.34427 0.19126 -0.16935 0.20026 -0.10329 -0.10184 0.12266 0.10664 0.22296 0.31139 0.3884 0.10833 0.075607 -0.11856 0.90355 0.18058 0.30279 0.051026 0.52791 0.54179 -0.53064 -0.1168 -0.0013959 0.18211 -0.11256 0.16297 -0.082712 -0.06073 -0.48892 0.002183 0.52891 -0.49822 0.14269 -0.15898 -0.13783 0.17997 -0.42203
flight -0.14677 -0.86936 -0.034549 0.095086 -0.067513 -0.10679 0.037248 0.024698 0.20407 -0.071649 -1.1817 -0.37055 -0.2009 -0.19276 -0.0099318 -0.084032 -0.20738 -1.0055 -0.54603 -0.30975 0.1092 0.22004 -0.65705 0.45728 -0.11358 0.42708 0.93916 0.64774 0.35317 0.32292 0.25774 -0.053883 0.22505 -0.77337 -0.20638 -0.35076 0.48291 0.14968 -0.12228 -0.088431 0.029751 0.12991 0.28636 0.39327 0.043171 0.54407 0.22688 0.15399 -0.060768 -0.3302 0.098164 0.27502 0.28736 0.10868 0.16513 -0.35731 -0.21724 0.16267 -0.32724 0.34686 1.1798 -0.54699 0.12355 -0.0069999 -0.15173 0.089026 -0.63637 0.31924 0.44339 -0.035639 -0.25039 0.14646 -0.24501 -0.12919 -0.20288 0.50027 0.26326 0.11118 -0.39622 0.068125 -0.139 0.33577 -0.14939 0.10275 -0.28954 -0.010782 -0.29266 0.2682 0.33851 0.50929 -0.33292 0.068173 0.055099 0.29843 -0.23968 -0.15696 -0.5371 0.19657 0.68415 -0.059307
forest 0.093029 -0.03283 0.48059 -0.43189 -0.0013035 -0.18747 -0.16591 0.10026 0.0028141 0.22234 -0.40584 0.10956 0.55963 0.60674 -0.44867 -0.36071 -0.30536 0.12814 0.2212 -0.18022 -0.32929 -0.12483 -0.32078 -0.24346 -0.063024 -0.40209 0.12845 -0.09823 -0.40739 0.40419 -0.1487 0.33573 -0.19429 0.052466 -0.29044 0.21111 0.17973 -0.089848 -0.11213 0.1959 -0.13608 -0.050405 0.69357 -0.13452 0.1593 0.13316 -0.063437 0.27976 -0.48093 -0.075509 -0.071828 0.18179 0.045529 0.30839 -0.65413 0.49164 -0.048442 0.30999 0.18386 -0.60422 1.157 0.28392 0.057731 -0.3254 0.17172 -0.70264 -0.28 -0.14411 0.085269 0.15351 -0.33432 -0.098731 0.30162 -0.101 -0.44097 0.50019 0.79926 0.28915 -0.12072 -0.0040282 0.14707 -0.1603 0.22119 -0.21332 -0.42349 -0.40712 -0.85345 0.45342 0.34471 0.024275 -0.58346 -0.83572 0.042367 0.15759 0.20073 0.0058084 -0.79642 -0.19787 0.0074986 0.017399
abuse -0.85855 0.42816 0.29028 0.093768 -0.38157 -0.094713 -0.74501 -0.69348 0.5773 0.24778 -0.25296 0.5189 0.21631 0.59742 0.32227 -3.7816E-4 0.38387 -0.52654 7.6095E-6 -0.51076 -0.036745 0.057266 -0.0097255 0.21423 0.0136 0.43912 0.63568 0.51375 -0.49983 -2.0955E-4 0.10609 -0.21552 -0.1516 0.32714 -0.32559 0.44798 0.18042 0.12266 -0.047695 -0.12191 0.0098322 0.43003 -0.33545 -0.2243 0.5216 0.44581 -0.20875 0.82218 -0.31494 0.5218 0.43912 -0.35369 -0.38547 0.25535 -0.14885 0.16176 0.22004 0.30686 0.36335 -0.10139 1.2637 -0.28747 0.044358 -0.12322 0.27528 -0.039497 0.21075 0.046884 -0.23681 -0.62705 0.59109 0.71839 -0.085681 -0.018447 -0.25466 0.1706 -0.31195 0.08374 0.3598 0.033431 0.71823 -0.036395 0.50716 -0.21316 -0.21695 -0.099898 0.54914 -0.2578 0.13825 -0.10821 -0.0054253 0.078971 0.15787 0.44394 -0.164 -0.30405 0.36777 0.081277 0.24321 -0.0086855
criterion -0.016856 0.097615 -0.76469 -0.082199 0.092063 0.4277 0.18393 -0.28597 0.42927 -0.66853 -0.39773 0.068019 0.36002 0.035092 0.36038 -0.37614 0.29668 -0.49038 0.19053 0.11213 0.07627 0.14602 -0.14046 0.30279 -0.0041874 -0.3916 0.56164 -0.13175 0.21558 -0.0098586 -0.043246 -0.011931 -0.34066 0.25975 -0.54918 -0.12312 -0.0042227 0.15558 0.014164 0.033685 0.066661 0.06118 0.45512 -0.41922 0.29921 -0.24816 -0.22309 0.53082 -0.125 0.56348 0.020398 0.20535 -0.48193 0.24502 -0.21026 -0.1039 -0.14495 -0.54269 -0.0070245 0.34559 0.40361 -0.16668 0.061064 0.097069 0.33108 0.058575 -0.57013 -0.44009 -0.334 -0.20253 -0.156 0.22635 0.15973 0.01667 -0.055703 0.17734 0.093888 0.37254 0.060135 -0.028988 -0.22182 0.33517 0.3442 -0.12936 0.01063 0.35047 0.18831 -0.033663 0.13306 -0.080168 0.06794 -0.22673 0.38492 -0.19011 -0.023468 -0.041624 -0.11866 -0.35357 0.13439 0.27186
sea 0.46113 -0.70999 -0.1065 0.30723 0.59798 -0.5321 0.047904 -0.18885 0.21858 0.10117 -0.73908 0.31639 0.91146 0.091527 -0.34284 -0.55023 -0.025679 -0.4551 -0.25904 -0.070744 -0.56476 -0.029729 -0.1073 -0.11116 0.09121 0.16513 0.23115 0.30736 -0.46561 0.48478 0.0020755 0.14127 -0.34182 -0.27751 -0.61484 0.27307 0.1988 -0.10289 -0.18113 -0.41433 -0.2508 -0.26683 0.35663 0.01979 -0.17157 0.51603 0.26978 0.38919 0.0016747 -0.15267 -0.049252 0.2751 0.48443 0.38436 -0.85869 0.026388 -0.13419 0.37267 0.032706 -0.14516 0.71418 0.50958 0.64549 -0.056015 0.18413 -0.49218 -0.40944 -0.089111 0.40108 -0.28515 -0.19414 -0.10662 -0.56207 0.17913 -0.16282 0.55883 0.52583 0.33013 -4.414E-4 -0.18026 0.55698 0.0628 0.080747 0.083683 -0.25933 0.095684 -0.31572 0.3654 0.21106 -0.016478 -0.52417 -0.58293 0.07064 0.27777 0.30926 -0.13247 -0.49206 0.17144 -0.032813 -0.13007
dollar -0.32962 -0.6487 0.084121 -0.61899 0.23328 -0.33813 -0.47559 -0.39393 0.011867 -0.024438 -0.64511 -0.013135 -0.43388 0.035802 -0.45734 -0.42825 0.082623 -0.14088 -0.70302 -0.67928 0.10166 0.19705 0.12271 -0.040335 -0.20629 -0.2222 0.68146 0.38619 -0.44126 -0.086861 -0.35639 0.40673 -0.0074198 -0.15428 -0.108 -0.17092 -0.23603 0.13038 0.24457 -0.07056 0.25501 -0.30302 -0.025913 -0.13792 -0.031509 0.2127 -0.23515 0.63836 0.19629 0.20295 0.0051087 0.034333 -0.24547 -0.17257 0.45368 -0.12029 -0.65045 -0.17184 0.77252 0.047842 0.16753 0.20584 0.63999 0.58788 0.43198 -0.34366 -0.45008 -0.31853 0.036387 -0.17461 -0.31554 0.054258 -0.54555 0.53107 -0.081905 0.78995 0.11445 -0.039906 -0.41253 0.67799 0.63046 -0.1032 0.28036 1.2032 -0.28785 0.49365 0.034222 1.142 -0.15476 -0.32383 0.28705 -0.27784 0.072937 0.033824 -0.12678 -0.27961 -0.10964 -0.92172 -0.24676 -0.03784
example -0.15878 -0.10161 -0.34035 -0.45544 0.028176 0.29622 -0.42415 0.12327 -0.029138 -0.37438 -0.37317 0.46416 0.15104 -0.13492 0.56121 -0.056942 0.067541 -0.26766 0.28681 0.12144 -0.25652 -0.040091 -0.14096 0.10757 0.0053018 -0.27724 0.35631 0.098603 0.36156 0.2026 -0.17719 0.13834 0.089223 0.14428 -0.15784 -0.071918 0.15748 -0.12773 -0.20284 0.10492 -0.1685 0.20868 0.25218 0.048676 0.33635 0.13242 0.49513 -0.042016 0.22934 0.083133 0.16556 0.091781 -0.040554 0.082734 -0.17468 -0.13694 0.12717 0.1897 0.12854 0.12093 0.10287 -0.073172 0.17021 -5.9524E-4 0.22826 -0.35332 -0.28019 -0.47298 -0.39545 -0.26404 -0.13224 0.19243 0.56272 0.20788 -0.12039 0.18614 -0.082052 0.26186 0.43102 0.366 0.33641 -0.28982 0.28471 0.23106 0.010257 0.088824 0.02391 -0.083463 0.33862 -0.18308 0.087521 -0.42458 0.32523 -0.023295 0.10587 0.044815 -0.42963 -0.2716 0.17207 -0.0039585
journal -0.50612 0.0025517 -0.25652 -0.61208 0.39161 0.53938 0.92216 -0.01725 -0.16325 -0.40416 0.03301 0.48911 0.39878 -0.33549 0.41027 -0.45126 0.1913 -0.54356 0.36909 -0.48747 0.26624 -0.00672 -0.89084 -0.15382 -0.14432 0.26902 0.69822 0.077418 -0.44144 0.27099 -0.028522 0.17254 -0.17663 0.096755 -0.75013 0.13741 0.20175 0.058233 0.13003 0.077689 0.19345 0.39973 -0.39698 -0.41277 0.40257 -0.70402 0.58285 0.37521 0.5505 0.49139 0.34064 -0.047909 0.3368 0.6388 -0.50546 0.33501 -0.11168 -0.29799 0.65935 0.01902 0.45427 -0.54681 0.47167 -0.36423 0.34136 -0.10858 -0.30419 0.045321 0.55359 0.64495 -0.28606 -0.15414 0.08946 0.26209 0.025701 0.063465 -0.21434 0.45334 0.39125 0.37703 -0.31742 0.79844 0.68716 0.1138 -0.56294 0.16238 -0.089197 0.49959 0.87172 -0.0019261 0.1489 0.10319 -0.017463 1.6949 0.26909 -0.20455 -0.48106 -0.67316 0.9738 -0.012859
laundering -0.38271 0.11793 0.43976 -0.36048 -0.35651 0.0092875 -0.58834 -0.33583 0.62147 0.13144 -0.32136 0.126 0.12463 0.3635 0.15802 -0.15153 0.042449 0.27746 -0.29117 -0.23927 -0.11154 -0.024981 0.070879 0.17438 0.76861 -0.12831 0.62807 -0.17609 -0.56348 -0.31732 -0.12673 0.016269 0.31285 0.3432 -0.47488 -0.19754 0.77194 0.30547 0.74755 0.34787 -0.42055 -0.13763 -0.1925 0.17456 -0.066275 -0.030467 0.68455 0.77802 -0.29525 0.30857 0.28546 -0.50849 0.21556 0.042337 -0.28342 -0.0026707 0.11284 -0.24798 -0.071244 -0.11994 0.96918 0.19033 -0.059501 0.27124 0.092367 0.030935 -6.3509E-4 -0.36299 0.15282 -0.66145 0.43782 0.22547 -0.23348 0.14783 -0.35051 0.5285 -0.85534 -0.1247 -0.42586 0.8157 0.51669 0.22009 0.33893 0.48886 -0.74555 0.1913 0.12984 0.3328 0.74116 -0.19194 -0.45651 -0.23367 -0.020808 -0.27044 -0.25568 -0.16623 -0.0076612 -0.17336 0.60752 -0.64672
hotel 0.15618 -0.2942 0.19681 -0.027373 0.081833 0.0052324 0.085361 0.12627 0.25214 0.22312 -0.5077 -0.31444 -0.35512 0.15851 0.31188 -0.2974 -0.032134 -0.25013 -0.44622 -0.56528 -0.61718 0.31196 0.049951 -0.10335 -0.06372 -0.29088 0.28155 -0.1202 0.37815 -0.23261 -0.022144 0.12787 0.020294 -0.39871 -0.80834 0.037055 0.48567 -0.11782 0.31512 0.087427 0.063002 0.43662 0.62653 0.23206 0.54371 0.0086913 0.28828 0.21154 -0.20341 -0.068031 0.24326 0.49201 0.24446 -0.28608 -0.25552 -0.19823 -0.091902 0.15105 -0.28954 0.093154 0.66426 0.028749 0.68135 -0.10203 0.16539 -0.15542 0.020912 0.055671 0.29672 -0.63404 0.46459 0.21684 0.17145 0.5688 0.010159 0.56219 -0.20353 0.37488 -0.4637 0.094212 -0.027383 0.012587 0.096009 0.43801 0.45052 0.070737 -0.56884 -0.12904 -0.12985 0.41797 -0.22813 -0.21275 0.21533 -0.035796 -0.68362 -0.28752 -0.92489 0.14532 0.62575 -0.084562
term -0.034682 -0.037921 -0.7539 -0.46788 0.046643 -0.16011 -0.75583 0.001645 0.19169 -0.15265 -1.0432 -0.36709 0.08896 0.068402 -0.14138 -0.21717 -0.39303 0.18925 0.085183 0.10574 0.20327 -0.18525 0.38099 0.48914 -0.27443 -0.71316 0.26706 -0.061584 -0.031921 0.48844 0.001046 -0.17637 0.077836 -0.13582 -0.53141 -0.47936 -0.24119 -0.5061 0.0013884 -0.062438 -0.17809 -0.033532 -0.33902 -0.23037 -0.20727 -0.33494 0.51956 0.9189 0.051467 -0.10434 -0.0074879 -0.46383 -0.058492 0.46383 -0.078621 -0.10761 -0.29004 -0.35422 0.37175 -0.053286 0.21239 -0.10241 0.17682 -0.1159 0.47673 -0.25339 -0.46492 -0.2079 0.11041 0.16471 0.25027 0.44035 0.48961 -0.28801 0.38567 0.27465 0.0090471 0.59493 0.12687 0.42413 0.37907 0.89477 0.17128 0.2073 -0.076499 0.19227 -0.18794 -0.0097666 0.14458 -0.11922 0.34222 0.019357 0.22451 -0.40016 -0.18556 -0.15118 -0.014847 -0.28655 0.19158 -0.78672
listing -0.22454 -0.081255 -0.15128 -0.58492 -0.60206 0.07419 0.023416 -0.1827 -0.58625 -0.52686 -0.47772 -0.21776 -0.082057 0.048955 -0.44676 -0.59311 -0.22764 -0.23165 0.3904 -0.23857 0.12783 0.13661 -0.46957 0.074917 -0.28779 -0.80629 0.91186 0.0074276 0.23797 0.1091 -0.3342 -0.0089399 -0.043847 0.1677 -0.34069 -0.0621 0.3204 -0.55484 0.29046 0.28273 -0.28695 0.090672 0.34193 0.018393 0.14175 -0.10832 0.098479 0.27918 0.20808 0.36124 -0.10741 0.066229 -0.12074 -0.066815 -0.083603 -0.014311 -0.23059 -0.19923 -0.011493 -0.062868 0.57654 -0.26517 0.34395 0.48269 0.18287 -0.25994 -0.27531 -0.35596 0.20269 -0.51898 0.0095928 -0.47493 -0.18571 0.47105 0.12801 0.27579 -0.17058 0.69625 -0.24998 0.36697 -0.07966 -0.26998 0.33742 0.31716 -0.021458 0.36711 -0.12942 -0.022575 0.41941 -0.1173 0.068422 -0.38612 0.15289 0.15734 -0.090418 -0.35642 0.18251 0.23125 -0.062082 -0.69128
chemistry 0.0090986 -0.34961 -0.097486 0.075307 0.62955 0.26231 0.16722 -0.57354 0.25121 0.030357 -0.24445 0.3714 -0.21287 -0.46842 -0.10538 0.061742 -0.058958 -0.50242 -0.062442 -0.47131 -0.25262 -0.6634 -0.79194 -0.045892 -0.27725 -0.047621 -0.18309 -0.20331 -0.57041 0.53007 -0.13232 -0.41944 -0.33557 0.40839 -0.027897 0.056315 0.030027 -0.096369 0.25141 -0.27771 -0.55363 0.37405 0.14995 -0.2769 0.43566 -0.39612 0.75694 0.54558 0.1119 0.63019 0.27226 -0.17357 0.23826 0.41254 -0.2062 0.32854 -0.073259 -0.50907 0.068796 0.17317 0.62826 -0.10815 0.4447 -0.026426 0.41671 0.17763 -0.47905 -0.11586 -0.29875 0.35566 0.2361 0.20986 0.25588 -0.18659 -0.56658 -0.0043408 0.043089 0.082158 0.10682 -0.088602 0.25357 -0.015764 -0.17306 -0.73034 0.1357 0.26216 -0.37783 0.12663 0.80084 -0.0036501 0.02717 -0.098157 0.095483 0.29415 0.26879 -0.4424 -0.536 -0.36447 -0.020742 0.35316
seafood 0.012519 -0.36901 -0.10086 0.24887 0.43218 0.1714 0.22655 -0.43139 0.12152 -0.36002 -0.51021 0.62881 0.29183 0.43414 -0.43677 0.20267 0.30984 -0.288 -0.20142 -0.078687 -0.49623 0.00242 -0.020465 0.20967 -0.040497 0.02559 -0.33865 -0.19651 -0.20012 0.22228 -0.36249 0.45174 -0.50796 0.36212 0.11201 -0.048242 0.40335 -0.32627 0.1315 -0.19119 0.060783 0.25807 0.72829 0.24366 -0.058817 0.30262 0.7565 0.038366 0.056953 -0.48155 0.14837 0.48033 0.060516 -0.16638 -0.30704 0.4408 -0.29163 -0.1391 0.20053 0.46505 0.90061 -0.18963 0.89404 0.083382 -0.076775 -0.59538 -0.113 -0.78376 -0.084129 -0.60068 -0.030727 -0.011855 -0.20785 0.38301 0.10094 0.043485 0.57567 0.53643 0.26574 0.084084 0.24511 -0.016294 0.3765 0.29271 -0.034981 0.47007 -0.84134 0.5463 0.5371 0.27824 -0.69407 -0.60003 -0.19273 0.079725 -0.46591 -0.73541 -0.44055 -0.33273 0.049623 -0.16758
CD -0.5306 0.10664 -0.54662 -0.43132 -0.074361 0.3924 -0.012665 0.79853 0.42757 -0.22297 -0.24887 0.31936 -0.1932 0.28358 -0.33473 -0.83781 0.39019 -0.5922 -0.13144 -0.66656 0.28228 0.19989 0.011728 -0.050162 0.067385 -0.56043 0.33667 0.025738 0.5187 0.3016 0.11454 -0.12754 0.04571 -0.16036 -0.082032 0.0058171 -0.011319 0.067583 -0.50357 -0.15551 0.31048 0.17318 0.38964 -0.49944 0.086764 -0.32599 -0.3458 0.24403 -0.42203 0.41106 0.19083 -0.12185 0.36539 -0.12964 0.17405 0.3941 0.59922 -0.83266 -0.1889 -0.015542 1.155 0.12522 -1.9615E-4 0.73534 0.43073 -0.3813 -0.41163 0.58948 0.012945 -0.55085 -0.51388 -0.38406 0.16479 0.63976 -0.61117 -0.099409 -0.32889 -0.20593 -0.42747 0.54199 0.31074 -0.48077 0.019095 0.61365 0.56425 0.29604 -0.067812 0.59862 0.071221 0.10296 0.052512 -0.2082 0.20115 0.24534 -0.066628 -0.51013 -0.31698 -0.13332 0.067893 0.097932
mind 0.34464 0.065591 0.18218 0.026757 -0.22109 0.089691 0.35052 0.18794 0.28935 -0.019434 -0.45614 -0.19845 -0.091292 0.27006 0.015871 -0.23996 0.30537 -0.6697 -0.49137 -0.24609 0.17423 0.084898 -0.090301 0.03095 -0.067789 0.20201 0.19675 0.019827 -0.0013352 0.16489 0.049015 -0.35342 0.35461 -0.20018 -0.47425 0.082286 -0.23033 -0.19355 0.053704 -0.091986 -0.13946 -0.36097 0.053465 -0.20857 0.34774 -0.04901 0.055923 0.37745 0.030527 0.23082 0.41698 0.044112 0.15098 0.54028 0.040582 0.37228 -0.12051 -0.10092 -0.027678 0.025279 0.17491 -0.054314 0.27738 0.6232 0.39992 -0.41356 -0.46279 -0.28751 -0.44303 -0.236 -0.33718 -0.081045 0.7012 -0.20688 -0.25865 0.0716 0.41829 0.25333 0.18968 0.125 0.25377 0.14187 0.13251 0.38378 0.19252 0.42212 -0.17802 -0.048198 0.80112 0.05403 -0.062709 -0.32651 0.37256 0.17021 -0.1338 -0.036103 -0.27958 -0.008305 -0.16757 -0.0092261
sex -0.23774 0.53136 0.04542 -0.12974 0.14579 -0.21567 -0.80951 -0.030095 0.31749 0.17813 -0.19908 0.24285 -0.23433 0.50771 -0.30639 -0.12465 0.60098 -0.37551 -0.54593 -0.55987 -0.33327 -0.015363 -0.2916 0.019811 -0.35639 0.72228 0.20329 0.3668 -0.37134 0.05326 0.076487 -0.52852 0.18401 -0.048073 -0.60601 0.43574 -0.036583 -0.24561 0.33175 -0.2616 -0.31334 0.44423 0.12767 -0.27579 0.59716 0.42344 0.21634 0.73463 -0.36785 -0.13322 0.15315 0.014297 -0.54721 0.22762 -0.1626 0.27835 -0.061804 -0.15733 -0.0041461 0.14025 1.0594 -0.20907 -0.09804 0.13979 0.14501 0.002753 0.0067582 0.029988 -0.31785 -0.23908 0.22586 0.026692 -0.022816 0.02794 -0.46382 0.28082 -0.17156 0.43733 -0.079719 0.3772 0.59371 -0.50451 0.36646 -0.16639 -0.22496 0.11095 0.81035 -0.45897 0.42428 0.30215 -0.058519 -0.10729 0.37441 0.92238 -0.65316 -0.28808 -0.28429 -0.49714 0.015179 -0.69294
food -0.28865 -0.18192 -0.21231 0.01581 0.1119 -0.26081 0.18612 -0.31256 0.48438 -0.14542 -0.36113 0.97881 -0.061127 0.28771 0.27021 0.17427 0.26296 -0.25132 -0.48324 -0.54299 0.036049 -0.0089648 0.33357 0.40455 -0.13322 -0.034667 -0.24055 0.10807 -0.59387 0.05403 -0.28191 0.1799 -0.07416 0.27967 0.11883 0.22 0.68616 0.28686 0.078816 -0.48315 0.031937 0.19762 0.51561 -0.24775 0.53649 0.11028 0.36855 0.13178 0.18981 -0.12109 0.32971 0.27105 0.049213 0.048608 -0.18091 0.23477 0.28222 0.046665 -0.012953 0.13094 0.73304 -0.070204 0.89935 -0.27398 0.12324 -0.32157 -0.65898 -0.59523 -0.28056 -0.39664 0.23231 0.0092343 0.15283 0.2597 0.22731 0.26282 0.23444 0.18165 -0.20355 0.19678 0.52817 0.49584 -0.062801 -0.066472 0.18834 0.43561 -0.8104 0.33747 0.018685 0.19798 -0.52808 -0.61658 -0.45231 -0.041216 -0.025409 -0.29507 -0.020374 -0.54621 -0.0020747 -0.14281
precedent 0.1212 0.35128 -0.17086 -0.40941 -0.34299 0.20515 -0.1711 -0.26612 0.59407 -0.21389 -0.43418 0.18387 0.41971 0.30077 0.59813 -0.20101 -0.20475 -0.46974 -0.011056 0.29705 -0.21524 0.37652 -0.32153 -0.050337 0.073589 -0.023164 0.24047 -0.29457 -0.20078 -0.053726 0.09045 -0.19675 -0.069202 0.11727 -0.62535 -0.3585 -0.16448 -0.26253 0.06955 -0.18213 -0.17699 0.04905 0.17059 -0.079338 0.23242 0.19703 0.43207 0.69211 -0.058173 0.32305 0.63072 -0.18402 -0.54105 0.19487 -0.16393 0.038469 0.046303 0.083611 0.24696 -0.090847 0.23201 -0.072042 0.017299 0.37289 0.092028 -0.14504 -0.30419 -0.42729 -0.42491 -0.37971 -0.28602 0.21746 0.55111 0.22966 0.040918 0.31278 0.063633 0.30273 0.50504 -0.40648 0.092458 0.0034145 0.16531 0.0096118 -0.016823 0.14168 0.46057 0.55712 0.1726 -0.020615 0.18589 -0.30048 0.36479 -0.21326 0.50661 -0.17913 -0.017947 -0.2785 0.062097 -0.026058
series -0.5255 0.32081 -0.30768 2.0172E-4 -0.42354 0.19216 -0.26793 -0.003796 -0.16845 -0.1201 0.065383 0.14313 0.018077 -0.13695 0.61165 -0.59703 -0.010914 -0.67213 -0.34626 0.48599 -0.79903 -0.46401 -0.27836 0.56617 -0.28271 -0.32559 0.20468 -0.29068 -0.11077 0.13854 -0.0094053 -0.259 0.12291 -0.3154 -0.41176 -0.03653 -0.46702 -0.01335 0.027908 0.083951 0.22168 0.55607 0.21483 0.12535 0.25677 0.031671 0.28706 0.35774 0.056944 -0.091407 0.67901 -0.42351 0.093506 0.14669 -0.0036197 -0.13768 0.23752 -0.23425 0.58683 -0.06808 0.61517 -0.59908 0.13769 0.26121 0.34064 -0.33624 0.12 0.27405 0.437 -0.65354 -0.16444 -0.041085 0.26744 -0.031109 -0.48479 0.056721 -0.01374 -0.0079705 -0.25128 0.052088 0.074037 0.23113 -0.19137 0.063367 0.20545 0.073991 0.14829 0.26144 -0.31536 -0.25796 -0.19753 -0.051436 -0.0019094 0.18937 0.027361 0.16716 0.015361 -0.32134 0.11157 -0.53575
kilometer 0.12923 -0.51628 -0.21074 0.61289 0.43406 -0.47646 -0.34153 0.036904 0.37858 0.27149 0.18646 -0.15497 -0.33077 0.43384 -0.38992 0.33339 -0.069723 -0.3122 -0.2906 -0.8978 -0.37506 -0.077345 -0.57597 -0.2125 -0.58915 -0.2455 1.1052 0.20894 0.068712 0.38132 -0.14025 0.5243 -0.2358 -0.14394 -0.68201 -0.53271 0.076035 0.40613 0.77709 0.53123 -0.61093 0.086122 0.36718 -0.49724 0.70818 0.076889 0.014148 -0.13197 0.030505 -0.80618 -0.10732 -0.068377 0.858 0.41766 0.11902 -0.19147 -0.08381 0.61516 0.68402 -0.20415 0.83368 0.25846 0.080983 -0.029519 1.0053 -0.52372 -0.77656 0.79305 0.47102 -0.26149 -0.21483 0.042853 -0.52107 -0.2498 -0.082133 -0.094356 0.5181 0.13211 0.40615 0.13823 0.0013357 0.23993 0.72229 -0.20984 -0.0015902 -1.3093 -0.086354 1.546 0.82785 0.60953 0.1597 -0.38907 0.25867 -0.60833 -0.42414 -0.07082 -0.81621 0.16495 0.12252 0.047424
grocery -0.30562 -0.19965 0.29449 0.06283 0.1805 0.26398 0.29241 -0.45011 0.10528 -0.51692 -0.26957 0.87086 -0.43026 0.26197 -0.31501 -0.18667 0.55695 -0.19354 -0.44367 -0.5805 0.16622 -0.15857 0.14277 0.33173 -0.18009 -0.56507 -0.15137 0.40314 -0.049791 -0.37178 -0.28608 0.1004 0.17585 0.05447 0.13884 -0.20137 0.81196 0.021576 0.055408 -0.56132 0.25614 0.53112 0.44573 -0.44045 0.511 0.39204 0.069535 0.26827 -0.13236 -0.38297 -0.056959 0.41527 -0.035634 0.12711 -0.036472 0.46374 -0.16736 -0.22656 -0.066233 -0.031467 0.6307 -0.14983 0.60326 -0.27323 -0.040484 -0.46211 0.0075292 -0.14935 0.034518 -0.60323 0.62449 0.053529 0.5617 0.33869 0.40908 0.0121 -0.049641 0.47775 -0.34022 0.626 0.51754 -0.10623 0.49391 0.59 0.33703 0.24141 -1.0804 0.11064 0.36467 0.29937 -0.4495 -0.3196 -0.070135 -0.37134 -0.33589 -0.52888 -0.76482 -0.49653 0.27666 0.082094
wizard -0.14898 0.13963 -0.19917 0.20938 0.21947 0.75141 0.039378 0.14404 0.0013647 -0.525 0.26495 0.44585 0.58028 0.18021 -0.27018 -0.025043 0.17073 -0.51471 0.077626 -0.018836 0.088083 -0.25554 0.042174 -0.089585 -0.13319 -0.38163 -0.041754 0.033429 0.19461 0.64403 0.28937 -0.60756 0.063632 -0.52995 -0.27108 0.078618 -0.17218 0.31672 -0.082474 -0.19823 -0.079779 0.56466 -0.16549 -0.051654 0.050341 0.060349 0.34242 0.76692 -0.56936 0.42729 0.55533 -0.50088 0.017319 0.41342 0.36088 0.18498 -0.026607 -0.12261 0.45029 -0.026675 -0.0015605 -0.17579 0.16669 0.33471 0.60914 0.15169 -0.4055 -0.066114 -0.39088 -0.26754 -0.028893 0.45337 0.16701 0.071975 -0.82014 0.14547 0.024744 -0.071006 -0.087439 0.096674 0.074084 -0.074893 0.12236 0.2811 -0.33186 0.23694 -0.040586 0.1147 0.1606 0.015691 -0.20878 -0.80103 0.24724 0.48717 -0.21164 -0.24107 -0.58827 0.055152 0.385 -0.027602
information 0.27151 -0.3829 0.13689 -0.0064858 -0.54043 0.30884 -0.091042 0.15293 0.27747 -0.56321 -0.46662 0.12014 -0.53308 0.16267 0.49922 -0.067067 -0.090403 -0.4984 0.21802 0.039717 0.13387 0.0042471 0.14596 0.092427 0.26546 -0.18657 0.75957 0.15457 -0.17729 -0.20326 -0.57094 0.45614 -0.18656 0.50606 -0.59451 -0.10687 0.12257 0.081409 -0.19748 0.020825 0.011722 0.14128 0.087194 0.14657 0.59197 -0.20853 0.39413 0.068459 0.054718 0.058195 0.074081 0.40443 0.22382 0.92423 -0.22289 -0.23681 -0.14568 -0.72591 -0.42449 -0.17242 0.64278 -0.17547 0.30443 0.11546 0.3896 -0.046458 -0.20267 -0.34477 -0.1117 -0.50917 0.15121 0.31884 -0.27468 0.08033 -0.1663 -0.39045 -0.61598 -0.030347 0.38096 0.44525 0.18726 -0.50662 0.86038 -0.17 -0.085602 0.020136 -0.25751 0.054026 0.61729 0.14683 -0.19216 -0.73806 0.13646 0.46989 0.19569 -0.14307 0.39982 -0.4258 0.044692 -0.18764
Israel 0.19266 0.96086 0.033612 -0.369 0.26962 -0.41829 -0.22542 0.22421 0.36898 0.71958 -0.74036 -0.2168 0.25172 -0.069656 -0.16436 0.12606 0.55776 -0.52091 -0.77626 -0.39983 -0.19289 -0.1401 -0.058402 0.015404 -0.32965 0.073639 0.67117 -0.27039 -0.14818 -0.57426 0.1361 0.0016807 -0.23171 0.35638 -0.35347 -1.0676 -0.37283 0.11328 0.059729 0.19242 -0.067622 -0.41652 -0.054738 0.42483 0.73225 0.08646 0.29021 1.0752 0.21285 0.089288 -0.66935 -0.095337 -0.30265 0.42092 0.27016 -0.25127 0.38543 0.55529 -0.17491 -0.30291 0.65945 -0.24981 0.20192 0.12105 -0.074268 -0.094481 0.064021 0.13327 -0.018893 -0.63891 -0.65611 0.2657 0.41673 0.03405 -0.14835 -0.16376 -0.022109 0.71642 0.28627 0.19356 -0.23648 -1.6889E-4 0.16355 0.18486 0.42319 0.40572 -0.34375 0.60301 -0.3077 -0.77857 -0.25305 -0.74456 -0.035647 0.48896 0.21024 0.12177 -0.23988 -0.79789 0.10889 -0.21547
brandy -0.15868 0.15832 0.25568 0.079572 0.10515 0.01479 0.24914 -0.12338 0.078536 -0.001545 -0.10761 0.6759 -0.069444 0.30245 -0.017269 -0.093926 0.33232 -0.24227 -0.14519 0.12017 0.13473 -0.095956 -0.33399 0.074322 -0.20625 -0.61848 -0.32626 0.31824 -0.1409 0.30341 0.14747 -0.12049 0.052317 0.23815 -0.043562 -0.24836 0.40538 -0.33544 -0.096779 0.039911 -0.16956 0.33424 0.17464 -0.21687 0.017003 0.22233 0.062459 -0.10533 0.076702 -0.37443 0.21152 0.21471 0.055476 0.12616 0.030438 0.33771 0.27027 -0.37305 0.2785 0.57596 0.71854 0.10629 0.12805 0.24465 -0.11628 -0.43268 -0.13638 -0.18699 -0.053539 -0.37324 0.13997 0.20265 0.24617 0.28224 -0.15234 0.057281 0.10078 0.29509 -0.18366 0.080281 0.46763 0.036716 0.37587 0.6182 0.58917 0.3252 -0.073419 -0.032129 0.6701 -0.14 -0.25088 -0.83008 0.42714 -0.24109 -0.41631 -0.27904 -0.45151 -0.16673 0.30301 0.096033
interview -0.4243 0.3036 0.44466 -0.4 -0.071043 0.10578 0.28629 0.16206 0.14936 -0.17551 -0.71646 -0.29471 -0.15518 0.097223 0.85493 -0.19319 -0.2951 -0.45988 -0.071467 -0.45311 0.15807 -0.19773 -0.5186 -0.25931 -0.30117 -0.15791 0.49517 0.14497 -0.035949 0.055179 -0.23694 0.082206 -0.010197 -0.27137 -0.83433 -0.010911 -0.29156 0.21594 -0.30129 -0.4186 -0.036565 0.56451 -0.11781 -0.43623 0.018517 -0.17082 0.43954 -0.22818 0.70157 -0.10403 0.28581 -0.3205 -0.067782 -0.015096 -0.24261 -0.055747 0.18841 0.11789 0.0015356 -0.19219 0.28702 -0.50366 0.074153 0.16393 0.33601 -0.10689 -0.066749 0.54247 0.010582 0.094097 0.48146 -0.076149 0.57258 0.13435 -0.13929 -0.39977 0.27977 0.39594 -0.21115 -0.13369 -0.48437 -0.25187 0.4065 0.25571 0.114 0.1843 0.057522 -0.024448 0.44302 -0.20928 0.2419 -0.59788 0.42407 0.46483 -0.38311 -0.34999 -0.03078 0.28549 0.77279 -0.7184
prominence -0.28916 -0.23242 0.19784 0.06901 0.31241 0.40137 -0.12073 -0.34882 -0.11594 -0.15959 -0.25358 0.14522 -0.06972 0.13422 0.3705 -0.27196 -0.13215 -0.067153 0.075425 -0.622 -0.32762 -0.20007 -0.44668 0.021168 -0.26992 -0.24744 0.37179 0.45224 0.076122 0.11563 -0.33289 -0.33495 0.29079 0.019462 -0.053837 0.12851 -0.21206 -0.52676 0.014283 -0.39871 -0.082462 0.44672 -0.090101 -0.18862 -0.06094 -0.17056 0.14451 0.18215 -0.034232 0.19881 0.23136 0.16248 -0.3649 0.36417 0.17306 0.14358 -0.15151 -0.14388 0.21259 -0.18678 0.16244 0.1556 2.7755E-4 -0.22813 0.27304 -0.28775 -0.43841 -0.21231 -0.087954 -0.42535 0.2104 0.25809 0.38109 -0.24895 -0.40394 0.29184 -0.027303 0.30304 -0.018437 0.0461 -0.067139 -0.15388 -0.0085179 0.32531 0.11876 0.1095 0.13677 0.31041 -0.28257 -0.5626 0.10787 -0.50538 0.32376 0.82073 -0.082429 0.056362 -0.010656 -0.46379 -0.085028 -0.13649
bed 0.37734 -0.31887 0.24695 0.45313 0.30816 -0.27506 0.088688 0.076748 0.53577 0.37295 -0.1529 0.17491 0.33399 -0.028816 -0.071262 -0.272 0.15108 -0.46144 -0.59369 -0.96674 0.22783 -0.1326 -0.069713 -0.10975 0.41336 0.094463 -0.0074806 0.22796 0.075139 0.54709 -0.047267 0.16288 0.64281 -0.13975 -0.897 0.43776 0.59749 0.454 0.0058584 -0.47731 0.39965 0.11715 0.46377 -0.18325 0.19678 0.21986 -0.011415 0.21821 0.25878 0.19836 0.29628 0.22931 0.2108 0.14048 -0.52152 0.0084594 0.11429 0.066812 0.26281 -0.27283 0.49922 -0.20247 0.27286 0.26165 0.34897 -0.50613 -0.091125 -0.11928 0.20747 -0.16682 -0.03984 -0.11214 0.45632 0.28235 0.033695 0.12466 -0.10526 0.65579 -0.19281 0.028902 0.57424 -0.14193 0.39844 0.22916 -0.13371 0.30236 -0.14996 -0.29448 -0.18404 0.12799 -0.14276 -0.16465 0.37323 0.053705 -0.32319 -0.12905 -0.86735 0.12988 0.28105 -0.30023
furnace 0.24173 -0.051433 0.33289 0.20865 -0.039596 0.010444 -0.20917 -0.0089998 0.084614 0.20222 0.032095 0.21172 0.34912 0.05562 -0.10692 -0.59736 -0.1633 -0.50249 -0.53723 -0.55233 -0.10619 -0.4932 0.024923 -0.061141 0.035258 -0.29666 -0.073926 0.51737 -0.10992 -0.072315 0.061383 0.55448 -0.061826 0.20758 0.034192 0.49555 0.59439 -0.18151 0.19371 -0.131 -0.10601 -0.43625 0.36199 -0.33412 0.85462 -0.27444 0.10215 0.35817 -0.077533 -0.46502 0.2235 0.17778 0.19389 -0.34013 -0.11683 -0.15189 0.17107 -0.28509 0.15361 0.043082 1.0744 -0.23829 0.39983 0.39536 -0.24757 -0.76515 -0.39919 -0.35137 0.29435 -0.26391 -0.51502 0.14491 0.01744 -0.22869 -0.48015 0.33268 -0.068264 0.13547 -0.036025 -0.009234 0.5377 0.25125 0.24618 0.18512 -0.13388 0.19369 -0.52369 0.38509 -0.01638 0.25954 -0.16351 -0.63978 -0.021016 -0.37743 0.33709 -0.10014 -0.32031 0.082529 0.44722 0.26505
evidence -0.053097 -0.063439 -0.02897 -0.15996 -0.28997 -0.031159 0.21413 -0.4324 0.5111 -0.0064408 -0.37225 -0.062531 -0.061913 -0.024376 0.48929 0.069312 -0.28493 -0.48539 0.033171 -0.30973 -0.10671 -0.068595 -0.14027 -0.32415 0.21755 0.01333 0.49798 -0.23511 -0.78283 -0.18129 -0.34766 -0.030119 -0.55553 -0.11057 -0.31355 -0.041401 0.26536 -0.27514 -0.041581 -0.37084 0.16351 -0.049111 0.18822 0.11521 0.46087 0.1064 -0.021559 0.19985 -0.025956 0.089193 0.61754 -0.060892 -0.19142 0.88195 -0.45599 -0.013179 -0.05492 -0.12669 -0.029878 0.1285 0.36467 0.26775 0.2053 -0.058167 0.20516 -0.90027 -0.42647 -0.19432 -0.71966 -0.24641 0.0331 0.53182 0.28676 -0.069663 -0.25439 -0.0065747 -0.51933 -0.072244 0.25442 0.3679 -0.080159 -0.19268 0.25914 -0.27209 -0.3545 0.44126 0.55548 0.38888 0.39811 0.020177 -0.11817 -0.26679 -0.20105 0.53611 0.49006 -0.51343 -0.42239 0.046662 0.66068 -0.36462
sprint -0.13166 -0.091679 -0.23426 0.092388 -0.12926 -0.57953 0.059315 -1.1175 0.21021 0.18991 0.058217 -0.36107 -0.17217 0.14799 -0.14852 -0.47891 0.35412 -0.32809 -0.020596 0.22185 -0.38026 -0.45835 -0.66929 -0.15336 -0.18322 -0.47083 0.18075 0.17218 -0.2467 0.92124 -0.3452 0.35018 0.11093 -0.76061 -0.37483 -0.32784 -0.38395 -0.17549 0.28183 -0.30743 -0.8699 0.18602 -0.24446 -0.37232 0.20521 -0.11316 0.28353 0.12086 -0.19969 0.057726 0.57467 -0.21699 -0.051989 0.27924 0.29208 -0.11668 0.41843 -0.45347 -0.23841 -0.042886 0.084101 0.66388 0.56409 0.16131 0.058213 -0.43459 -0.69563 -0.010734 0.42862 -0.12551 0.24344 0.11934 0.1054 -0.0046645 -0.29903 -0.04179 0.4816 0.25113 0.25268 -0.14088 -0.145 0.36075 0.15525 0.43163 -0.34095 0.028435 0.44007 0.47181 0.63411 0.012395 -0.10062 -0.18444 0.37562 -0.1171 -0.2592 -0.89411 -0.49842 -0.094917 -0.11634 -0.054984
emergency -0.36942 0.10627 0.15957 -0.092524 -0.55534 -0.33027 -0.26108 -0.022824 0.37371 -0.24258 -0.8815 -0.1087 0.074123 -0.2973 0.68846 0.043198 0.12404 -0.10152 -0.58852 -0.21014 0.092087 0.19933 -0.10112 0.3806 -0.055381 -0.15482 0.5456 0.033713 0.034722 0.25044 -0.12634 0.075281 -0.37002 0.1673 -0.71631 -0.072395 0.93876 0.73505 -0.50385 -0.24169 0.13259 0.096648 1.08 0.11574 0.54182 -0.34869 0.17392 0.35821 0.27209 0.43257 0.17817 0.0020887 -0.34447 -0.29515 -0.52977 -0.70338 0.14249 0.14347 0.045408 0.002956 0.45034 0.032303 -0.097423 0.17367 0.27112 0.098581 -0.11752 -0.11337 -0.022115 -0.15374 0.18778 -0.21103 0.13168 -0.24457 0.20667 0.24691 0.26623 0.68801 -0.079192 0.3684 0.13057 0.46908 0.22151 0.11012 -0.24341 -0.42288 -0.3211 0.18713 -0.481 0.49005 -0.23693 -0.68419 0.16915 -0.060069 -0.05445 0.57724 0.1339 -2.9748E-4 -0.062018 -0.125
Jackson -0.65481 -0.34442 -0.080501 -0.4681 0.13208 -0.77717 -0.11748 -0.12692 0.32843 0.1399 -0.17459 -0.040057 -0.58757 0.84724 0.23951 -0.54543 0.033846 -0.55383 -0.24729 -0.60625 0.3426 -0.061597 -0.37475 -0.66929 -0.10922 -0.38685 0.78012 0.10355 0.33435 0.44531 0.23907 -0.65239 0.12795 0.24678 -0.27681 0.66247 0.27863 0.044418 -0.37742 -0.11654 -0.20934 0.7967 0.095299 0.23908 -0.058523 0.0022698 0.17705 0.49065 -0.17238 0.97732 0.42601 -0.32692 -0.11409 0.39383 0.1273 0.14887 0.37161 -0.26097 0.03391 0.27818 0.13749 -0.12418 -0.14806 0.1625 0.30651 -0.42331 0.15891 0.32975 -0.21168 -0.66779 -0.17004 -0.06213 0.24485 -0.19146 -0.17667 -0.21921 0.0094042 0.0032661 0.16067 -0.3407 -0.77958 -0.14218 -0.080162 0.10215 0.29453 0.014943 -0.09709 -0.43041 -0.38434 0.099277 -0.62724 -0.58858 -0.054208 0.068891 0.20087 -0.088405 -0.38701 -0.19679 0.31482 0.013034
institution -0.64912 -0.32784 -0.009538 -0.28942 -0.022902 0.38686 -0.31953 -0.12256 0.26568 -0.25336 -0.33168 0.12418 0.31227 -0.11395 0.032436 0.025501 0.014144 -0.27005 0.077491 -0.034033 0.20274 0.48756 0.029105 -0.38688 -0.15261 -0.075297 0.51141 -0.15178 -0.54569 0.30388 0.21211 -0.04761 0.29477 0.050249 -0.63136 -0.41246 0.098917 -0.20602 0.24432 -0.16966 0.23429 0.38559 0.37531 -0.38695 0.55497 -0.23377 0.053263 0.39452 -0.39295 0.31893 0.055718 -0.44347 -0.076038 0.19861 0.075746 -0.17465 -0.35525 0.026864 -0.18832 0.15013 0.57034 -0.21024 0.21598 0.10858 0.20594 0.34581 0.064016 -0.29176 -0.39305 -0.020595 0.23271 0.033562 0.40573 -0.15949 0.14444 0.8034 -0.22382 0.52585 0.155 -0.043513 0.080294 0.21849 0.33006 -0.02471 -0.16616 0.1633 -0.072863 0.22422 0.15908 -0.045229 0.081747 -0.55425 0.33585 -0.018602 -0.25594 0.24612 0.13799 -0.52286 0.0085656 0.54497
bird 0.22198 -0.29284 0.27622 0.18437 -0.27199 -0.030302 0.070002 -0.27631 -0.26285 0.056217 -1.1342 0.25421 0.5028 0.35027 -0.87481 0.016895 0.027586 -0.5686 -0.29759 0.12267 -0.99442 -0.35829 -0.22221 -0.38142 -0.12984 0.18823 -0.16492 0.1925 0.038698 0.37324 -0.4192 0.58035 -0.40233 -0.10532 -0.23418 0.063182 0.23274 -0.29007 -0.88594 0.28863 0.071562 0.41436 0.40648 0.23948 -0.25178 -0.083054 0.12743 0.35852 0.15958 -0.1658 -0.16475 -0.025626 0.32553 0.50351 -0.5111 0.25463 -0.30521 -0.31467 0.07971 0.091078 0.60043 -0.17444 0.84492 0.077275 0.29832 -0.39279 -0.61483 -0.24528 -0.2187 0.16891 -0.50758 -0.37143 0.22524 -0.43334 -0.74577 0.085271 0.36341 0.88673 0.15414 0.33196 0.39206 -0.43742 -0.13371 0.39952 -0.2907 0.039515 -0.087249 0.0053681 0.57796 0.48623 -0.55323 -0.11728 -0.086359 0.51167 -0.13685 0.15633 -0.64306 -0.29458 0.30444 -0.10545
Brazil -0.57217 0.0020513 -0.17836 -0.50014 0.093574 -0.5191 -0.68532 -0.29657 -0.64903 -0.38945 -0.17241 0.074873 -0.20461 0.48912 0.4948 -0.23541 0.021237 -0.14205 -0.42007 -0.27839 -0.23348 0.84692 -0.36904 -0.11011 0.15642 -0.041305 -0.18322 0.016408 -0.19047 0.35761 -0.44503 0.56298 0.046608 0.14582 -0.062932 0.29409 0.0057361 -0.13188 0.010566 -0.0043478 -0.37201 -0.020347 -0.073719 0.16003 -0.18017 -0.074609 0.53345 0.40965 -0.17914 0.16544 0.074795 -0.10936 0.10429 0.07849 -0.201 -0.59667 0.19389 0.48523 -0.51531 0.079092 0.46006 0.25068 -0.2705 -0.21643 -0.0092259 -0.34531 -0.43374 0.37268 0.16035 -0.20886 0.3851 0.32903 -0.074154 0.13207 -0.75974 -0.16847 0.777 0.60888 0.18349 0.072058 0.015416 -0.055366 -0.0044599 0.18957 -0.01 0.53385 -0.12674 0.86034 0.0072071 -0.40569 0.29974 -0.8909 0.58351 0.15167 -0.11337 -0.27124 -0.38088 -0.11454 -0.12919 0.0024198
warning -0.28416 0.10462 -0.030787 0.27724 -0.65524 0.14027 -0.25394 -0.68336 0.15735 0.077361 -0.80662 0.17574 0.51384 0.10461 0.2344 -0.34624 -0.12566 -0.74155 0.04193 -0.12379 0.27788 -0.034937 0.074098 0.050576 0.30385 -0.086785 0.21486 0.41501 -0.045274 -0.29949 0.12898 -0.067975 -0.91131 -0.47091 -0.25894 -0.31359 0.33419 0.11669 -0.49528 -0.18467 0.01595 0.24743 0.28773 0.14354 -0.31282 -0.25239 0.34154 -0.0096622 0.23548 0.0061618 0.41066 0.0057659 -0.45404 0.2965 -0.34737 -0.55105 -0.15164 0.35575 0.50806 -0.30242 0.48787 -0.025752 0.0097285 0.19572 0.2355 -0.20685 -0.17491 -0.41136 -0.056351 -0.10248 -0.3763 0.052492 0.094497 0.45336 -0.062113 -0.1489 -0.017936 0.5148 0.088364 0.5393 0.35886 -0.044793 0.39972 0.19694 0.29343 -0.17769 -0.53526 0.34461 0.40474 -0.11892 0.2462 -0.59154 -0.025077 0.19568 0.3341 0.021356 0.22291 0.40641 -0.11473 -0.23031
implement 0.48408 0.018943 -0.36479 -0.21364 0.0052581 0.20444 -0.18522 -0.23444 0.12526 -0.50882 -0.52878 0.20797 -0.036376 -0.085251 0.74287 -0.13726 -0.32434 0.1691 0.091903 -0.096925 0.31922 -0.27837 0.056256 0.40539 0.31093 0.099856 0.61859 -0.77007 -0.022595 0.15145 -0.087851 0.38585 0.030251 0.16639 -0.27934 -0.31901 -0.27827 0.085284 0.066676 -0.117 -0.23818 0.085512 0.85426 -0.081754 0.59634 0.22039 0.066528 0.48078 -0.21266 0.13498 0.11757 -0.38797 -0.25471 0.032129 -0.19502 -0.29138 0.1669 -0.1433 0.15984 -0.1381 0.69658 -0.15525 -0.32438 0.40279 -0.043699 0.19808 -0.65603 0.12981 -0.26236 -0.32838 -0.136 -0.23376 0.394 -0.011266 -0.14044 0.4257 0.31998 0.5182 -0.030166 0.58246 0.27132 0.58673 0.22682 0.17135 0.21704 -0.24585 -0.14116 0.27694 0.57992 -0.027718 0.06868 -0.26465 -0.0011427 -0.21206 0.0023741 -0.16317 0.54857 -0.21543 0.40267 -0.21929
train -0.55231 -0.35988 0.35541 0.23753 -0.077409 -0.26102 -0.13974 -0.48183 0.0071824 0.066603 -0.57429 0.025233 -0.23449 -0.37208 0.33495 0.041905 -0.29222 -0.59456 -0.38848 -0.31219 -0.29843 -0.016519 -0.081798 0.39449 0.32058 0.13032 0.32809 0.79069 0.61118 0.29154 0.12777 0.080783 0.17357 -0.70624 -0.32166 -0.3897 0.015127 0.29888 -0.37105 -0.1021 -0.21601 0.38948 0.55307 -0.013438 0.79335 -0.021173 0.2858 -0.13061 -0.75202 -0.58872 -0.44828 0.14346 -0.084426 -0.10464 0.092157 -0.33916 0.09815 0.017689 -0.29061 0.039972 0.46991 0.045499 0.21213 0.053462 0.32811 -0.1875 -0.25258 -0.15247 -0.039754 -0.093979 -0.40443 -0.040403 0.080415 0.13998 -0.28789 0.028725 -0.13203 0.10874 0.010591 -0.06726 0.063398 0.57139 0.40222 0.16488 -0.40765 -0.36453 -0.46409 0.21107 0.41138 -0.1439 -0.13314 0.094572 0.65237 0.059293 -0.20667 -0.45145 -0.33998 -0.36608 0.34875 -0.098612
area -0.18424 -0.35359 0.40806 -0.29371 -0.265 -0.17995 0.12832 -0.30971 0.12366 0.096309 -0.26695 0.14454 0.054035 -0.099467 0.14667 -0.4334 -0.37705 -0.36439 -0.21301 -0.31045 -0.2007 -0.19041 0.37317 -0.13979 0.063914 -0.078815 0.22186 -0.35057 0.11176 0.18451 -0.31909 0.27532 -0.042073 -0.23122 -0.80142 0.10791 0.40285 -0.16162 -0.25129 0.11507 -0.13573 0.07806 0.24913 0.19328 0.28612 0.24846 -0.11042 -0.055222 -0.5287 -0.098751 0.096841 0.34798 0.17166 0.26935 -0.48354 -0.15668 -0.32087 0.13393 0.12739 0.116 0.48225 0.0044258 0.086566 -0.21541 0.27728 -0.22062 -0.070271 0.062632 0.048208 -0.25799 0.082265 0.061657 0.17642 -0.3796 0.096228 0.40684 0.11816 0.37665 0.17421 0.17709 0.18933 -0.069642 0.3591 -0.2858 0.31111 -0.36682 -0.33269 0.49004 0.17433 -0.064869 -0.60687 -0.2157 0.52228 -0.18045 0.0071189 0.15929 -0.71202 -0.2194 0.16866 -0.0034987
image 0.15703 0.18992 0.20652 -0.0025432 -0.3656 0.18705 0.14172 0.1669 -0.29511 -0.10705 -0.37253 -0.048762 0.57293 0.39102 0.31689 0.45189 -0.069757 -0.16634 0.34997 -0.21837 0.026888 0.034348 -0.27388 0.079138 -0.1344 -0.094224 0.41935 0.41222 -0.34354 0.055705 0.013484 0.073366 0.010371 -0.19345 -0.30156 0.012605 -0.24816 -0.42938 -0.35391 -0.32105 0.24999 0.03287 0.12262 -0.29584 0.092082 -0.23903 0.20786 0.1386 0.0060571 -0.074504 0.3463 0.39898 0.22512 0.50104 0.054388 -0.34599 0.4904 -0.19875 0.060519 0.33167 0.64018 -0.4204 0.35105 0.19073 0.48326 -0.38076 -0.019414 -0.20603 -0.23138 -0.13216 0.012179 0.65677 0.18885 0.031789 -0.72886 0.77938 0.28601 0.37672 -0.43795 0.11631 0.34473 -0.33182 0.31221 0.44789 0.4262 -0.13191 0.17173 0.051458 0.72341 -0.31648 -0.19996 -0.28828 0.6742 0.1269 0.092465 -0.0078852 -0.27008 -0.23948 0.021125 0.15272
murder -0.75117 -0.077474 0.21638 -0.014258 -0.37194 0.01423 0.0066418 0.0027877 0.8306 0.47324 -0.35993 0.47233 0.32443 0.20993 0.32838 -0.13251 0.046122 0.2433 -0.30677 -0.10083 -0.21888 -0.42928 -0.35004 0.15473 -0.31264 0.14073 0.44695 0.16854 -0.11166 -0.0036776 0.1529 -0.37832 -0.071157 0.23774 -1.1798 -0.33126 0.13703 -0.24183 0.26761 -0.28619 -0.025992 0.32298 -0.33876 0.04861 0.42681 -0.052886 -0.002377 0.35716 -0.72657 0.21937 -0.044116 -0.088073 -0.032804 0.17189 -0.07433 0.056574 -0.12486 0.032752 -0.28296 -0.042103 1.0935 0.24412 0.15522 -0.077954 0.31263 -0.14388 0.041801 0.98451 -0.07924 -0.12455 0.48513 0.96961 0.73309 -0.43739 -0.033448 0.2869 -0.63083 0.21386 0.27924 0.18502 0.29487 0.11318 0.11264 0.47589 -1.002 0.37726 0.56865 0.053468 0.71581 0.1405 -0.53084 0.088825 -0.012372 0.065023 0.18035 -0.36284 -0.65229 -0.24359 0.63492 -0.8558
journey 0.046031 -0.2941 -0.19583 -0.010735 0.13072 -0.47898 0.045369 0.14552 0.14735 0.10626 -0.19747 0.042356 -0.13281 0.22808 0.32426 -0.039805 -0.097174 -0.1947 -0.06904 0.42328 -0.2582 -0.30251 -0.48592 0.52122 -0.50557 0.31313 0.64731 0.79442 0.73988 0.78835 -0.13868 -0.081195 0.56244 -0.66555 -0.46623 -0.33512 -0.10713 0.073049 -0.28991 0.0058307 -0.0045181 0.29546 0.13302 -0.38345 0.4225 0.31499 0.34434 0.010305 0.020002 -0.24562 0.50236 0.19088 0.6401 0.2912 -0.0025566 0.031978 0.10274 0.26123 0.054361 -0.25853 0.97645 -0.13627 -0.031891 0.12174 0.28992 -0.21308 -0.42046 0.18355 0.075052 0.16775 -0.42408 0.30316 -0.032504 0.022744 0.21674 0.030266 0.2956 0.21598 0.32157 -0.22387 -0.084281 0.65684 0.40802 0.18806 -0.11182 0.16111 -0.50398 0.18726 0.75828 -0.069997 -0.51051 -0.153 0.60013 -0.072948 0.27908 -0.23755 -0.18925 -0.27168 0.17177 -0.27702
minister 0.19858 -0.28489 0.39444 -0.38662 0.40227 0.014256 -0.25784 -0.35209 0.6728 0.68009 -0.44394 -0.01369 -0.13061 0.3664 0.68616 -0.095647 0.1434 0.44285 -0.12297 -0.41604 -0.14837 -0.36123 -0.57103 -0.2132 -0.0016462 -0.28797 0.39534 -0.12659 0.23281 0.30768 -0.46445 0.20104 -0.47716 0.18521 -1.0061 -0.52369 -0.58915 -0.045029 0.3374 -0.17034 0.17602 -0.24489 0.48044 -0.39329 -0.41227 0.27838 0.66823 0.083507 -0.13561 0.23004 0.13392 -0.30384 0.065919 0.036907 0.11511 -0.29394 0.0026225 0.45147 0.08699 0.1242 0.47746 -0.73433 -0.026286 -0.43618 -0.019294 -0.043558 -0.51297 -0.64434 -0.089676 -0.59465 0.15494 0.42813 0.54488 -0.30893 -0.47147 -0.34563 -0.31905 0.60705 -0.0020665 0.66956 0.42421 0.5453 -0.18518 0.17271 -0.44062 0.036399 -0.39784 0.29128 -0.90857 0.13748 0.40171 -0.44072 0.24072 0.44958 -0.18604 0.05243 0.17377 0.020572 0.36781 -0.48178
planet 0.48761 -0.44016 0.19359 -0.39688 0.18079 -0.28165 -0.12683 0.29893 -0.3044 0.069042 -0.37925 0.30404 0.74061 -0.1362 0.074176 -0.33308 0.11527 -0.62971 -0.31406 -0.085571 0.039231 -0.070504 -0.25683 -0.49618 -0.10251 -0.19997 0.39723 0.47556 -0.61034 0.52205 0.089555 0.31051 0.035699 -0.13743 0.011622 -0.040424 0.21585 -0.036303 0.068822 0.019849 0.055096 -0.46006 0.56598 0.14244 -0.26415 0.58052 0.31741 0.87899 -0.31546 -0.05796 0.1652 -0.10506 0.32707 0.89195 -0.20505 0.46642 0.29354 0.067082 0.036359 -0.015631 0.93278 -0.10909 0.37782 0.15056 0.46865 -0.24131 -0.76388 -0.076019 0.041024 0.13594 -0.41469 0.38909 0.15572 -0.019295 -0.22314 0.51272 0.45881 -0.013105 0.082873 -0.53242 0.36057 0.041864 -0.5391 -0.047682 -0.34673 0.23191 -0.28453 0.40927 0.67015 0.2068 -0.19635 0.15634 0.62131 0.18087 0.17656 -0.093978 -0.55579 -0.29398 0.13647 -0.25988
article -0.095493 -0.038792 -0.28524 -1.1293 -0.073643 1.0637 0.62182 0.03831 -0.17961 0.095472 -0.06909 0.45179 0.51138 -0.10674 0.51896 -0.25058 0.3726 -0.53095 -0.073512 -0.19554 -0.38456 -0.38307 -0.23756 -0.49489 0.10631 0.23216 0.99457 -0.0085302 0.092359 0.29769 0.94652 0.44386 -0.25078 -0.2045 -0.64587 -0.012655 -0.17019 -0.19657 -0.10732 -0.46324 -0.077991 -0.083963 -0.44996 -0.79067 0.18112 -0.39635 0.12116 0.28642 0.57635 0.41617 0.2294 0.055481 -0.19704 -0.091633 -0.54529 -0.81985 -0.81714 -0.546 -0.010866 0.082709 0.7121 -0.39152 0.72066 -0.049224 0.36691 -0.19411 -0.49051 0.31068 0.90041 0.45032 0.093239 0.24939 0.23696 0.30049 -0.16676 -0.63421 -0.44099 0.25613 0.44363 -0.031473 0.39381 0.57038 0.67871 0.090156 0.017668 0.065022 0.27968 0.20611 0.80272 -0.065176 0.33369 -0.21677 0.6428 0.58856 -0.48313 0.17206 -0.33106 -0.59208 0.94831 -0.79494
anxiety -0.095251 0.36411 0.058829 0.042456 0.099175 -0.59963 -0.11662 -0.38588 0.070014 0.15099 -0.42345 0.33948 -0.15698 -0.41578 -0.023476 0.054697 0.022956 -0.89512 -0.3565 -0.89013 -0.20202 0.06722 0.28296 0.40825 -0.096466 0.71991 0.73562 0.59259 -0.28594 -0.13034 0.046172 -0.18616 -0.17977 0.40149 -0.26066 0.25758 -0.05933 -0.10026 0.29404 -0.16026 0.26214 0.1313 0.058945 -0.088415 0.052754 -0.24758 -0.26427 0.015687 -0.053204 0.48909 1.1279 -0.030051 -0.03657 0.82082 -0.22223 0.04032 -0.31365 0.15059 0.53795 0.3308 0.66298 0.16093 0.22856 0.036318 0.59964 -0.33 0.046835 -0.70661 -0.64722 -0.28688 0.083138 0.30403 0.23598 -0.23842 -0.20885 -0.31317 0.25303 0.19409 0.36094 0.36107 0.03621 0.059332 0.1006 0.085242 0.41196 0.34391 -0.24012 -0.21974 0.088468 0.0043263 0.39669 -0.11907 0.34585 0.26744 -0.064438 -0.090681 -0.13286 -0.38313 0.054205 -0.053184
month -0.27025 -0.38269 -0.19635 -0.043537 0.091112 0.27993 -0.31555 0.012172 0.092069 -0.23508 -0.5893 -0.0054038 -0.0257 0.26593 0.32634 -0.48542 0.22877 -0.40736 0.17046 -0.20515 0.14062 -0.025415 -0.37416 0.31176 0.095909 -0.28005 0.20919 -0.0094051 -0.21632 -0.28268 -0.20662 0.5677 0.070764 -0.45355 -0.42312 -0.021936 0.37618 -0.15363 -0.38495 0.234 -0.2266 0.36016 -0.025434 -0.27046 0.1472 -0.11576 -0.097512 0.4611 0.47771 -0.03721 0.25735 -0.50058 0.11878 -0.17891 -0.50755 0.014755 0.25977 0.42019 0.089547 0.2842 0.17236 0.22595 0.32994 0.032721 0.26289 -0.21569 -0.11021 0.26387 -0.08838 -0.45136 0.036062 0.33085 0.33527 -0.15397 0.12847 -0.067493 -0.15251 0.47192 -0.17938 0.45625 0.06359 -0.19828 -0.052638 0.38894 0.093044 0.077136 -0.22133 0.81554 -0.14693 0.075361 0.038361 0.26592 0.031655 -0.29244 -0.11501 0.15723 -0.16001 -0.44756 0.094005 -0.38909
carnivore -0.27044 -0.070699 0.12847 -0.033562 9.9102E-4 -0.10948 -0.054338 0.0073644 -0.15692 -0.1478 -0.23619 0.61904 0.32465 0.36438 -0.27417 -0.17338 0.0067593 -0.12037 -0.084902 -0.21525 -0.86248 -0.070957 -0.46289 -0.20078 -0.094945 0.16028 0.23983 0.11121 -0.16583 0.27631 0.050682 0.070753 -0.11707 -0.02424 0.18906 0.24242 0.44781 -0.29117 -0.12001 -0.11726 -0.032292 0.26632 0.32995 -0.013082 0.24542 0.21179 0.26504 0.40392 -0.17182 -0.077117 0.38643 -0.087777 0.12448 0.66735 -0.09213 0.032423 0.089359 -0.057935 0.075589 0.11542 0.68714 0.041234 0.35195 -0.22463 0.42996 -0.55198 -0.10916 -0.19639 -0.22614 -0.23966 -0.1499 0.16873 0.15266 0.19821 -0.29825 0.28235 0.26742 0.28195 0.32144 0.0040626 0.40345 -0.11729 0.012947 0.22902 0.14942 0.21758 -0.15354 -0.019587 0.5828 0.13223 0.0018358 -0.39821 0.28452 0.39131 -0.035074 -0.097035 -0.53756 -0.14408 0.3501 0.20453
party -0.21031 -0.12524 0.31953 0.13099 0.25226 -0.33237 0.37591 -0.1075 0.11243 -0.17415 -0.26826 -0.28971 0.10154 0.096726 0.15867 -0.018622 0.24865 0.63926 -0.24331 -0.23565 -0.26254 0.208 -0.55027 0.23907 -0.17191 -0.29395 0.56034 0.10174 0.085064 0.043148 -0.37153 0.1312 0.26823 -0.24596 -0.54109 -0.55626 0.22539 -0.51211 -0.132 -0.41609 -0.083706 -0.50291 0.39401 -0.33149 -0.06218 0.25387 -0.15015 0.24026 -0.21355 0.053724 0.087896 -0.29337 -0.38099 0.57244 -0.031391 0.018874 0.10405 -0.17264 -0.41052 0.22067 0.38539 -0.59522 0.25431 -0.083099 0.20707 -0.11452 0.22305 -0.075453 0.070881 -0.69769 0.19733 -0.033235 0.61449 -0.3827 -0.24206 0.41014 -0.31584 0.42893 -0.019968 0.14752 0.43991 0.021386 -0.43059 0.21403 0.37255 0.030207 -0.32049 0.22763 -0.052139 0.43542 0.6224 -0.45293 0.25502 -0.11846 -0.17886 -0.40966 0.26245 -0.55443 0.39414 -0.29255
production -0.35207 -0.091416 0.047721 -0.29535 0.26652 0.29133 -0.73896 -0.27584 0.31732 -0.48565 0.31593 0.42016 0.011601 -0.1391 -0.077308 -0.28141 -0.26971 -0.044184 -0.19483 -0.21028 -0.308 -0.34555 -0.31444 0.66635 -0.42497 -0.19253 -0.058337 0.15881 -0.056641 0.20741 -0.37788 0.64121 -0.28573 0.18847 0.080851 0.16148 -0.14654 -0.19053 -0.22498 -0.91517 0.01952 -0.09496 -0.33679 -0.18401 0.089539 0.22104 -2.5074E-4 0.90453 0.069911 0.0021449 -0.04102 0.097548 0.056622 -0.17953 -0.0086037 0.28138 0.40989 -0.13044 0.35507 0.010624 0.94043 -0.11087 -0.062564 0.18734 0.10063 -0.3512 -0.67538 0.24196 -0.36751 -0.1208 -0.1645 0.061179 -0.059522 0.065862 -0.47616 -0.068996 0.16051 0.0063667 -0.35099 0.086784 -0.55953 0.56823 0.3096 -0.13449 0.04894 0.40034 -0.57876 0.24523 -0.22418 -0.39548 -0.27742 -0.55859 -0.0043283 -0.25696 0.029047 -0.24731 -0.45482 -0.046318 0.30701 -0.14382
importance -0.10106 0.079067 0.34328 -0.24509 0.25936 0.18921 0.39411 -0.57416 -0.15358 -0.23217 -0.2523 0.10412 0.23048 -0.065686 0.34054 0.19945 0.15376 -0.35649 0.2988 -0.19328 -0.047426 0.042182 -0.30297 0.10119 -0.11928 0.20456 0.6032 -0.26152 -0.3898 -0.0077748 -0.30564 -0.066001 -0.0098918 0.14684 -0.38065 0.21919 -0.3655 -0.19452 -0.37361 0.031337 0.37378 0.08284 -0.0073444 -0.14061 0.39297 0.073147 0.17752 0.10566 0.22611 0.089854 0.66883 -0.099591 0.055699 0.62004 -0.061472 -0.31476 -0.60099 -0.059512 -0.27235 -0.16151 0.55221 -0.19539 -0.043172 0.14805 -0.0055319 -0.27114 -0.54048 -0.48577 -0.78433 -0.54541 -0.2062 0.24063 0.214 -0.2369 0.19392 0.16669 0.69249 0.12751 0.023679 0.16075 -0.04062 0.13674 0.25039 -0.30664 0.22371 0.2962 0.24634 0.42254 0.29945 -0.29507 0.037242 -0.45508 0.44636 0.097062 -9.9791E-4 -0.077805 0.19082 -0.50873 0.13855 -0.21291
inmate -0.1586 0.13981 -0.056775 -0.013763 -0.32922 -0.25309 -0.40258 -0.030573 1.31 -0.019852 -0.65995 -0.0077365 0.16058 -0.0058443 -0.56218 -0.03751 0.13766 0.0055856 -0.29289 -0.22125 -0.070723 -0.53624 -0.29672 0.012794 0.041085 0.065384 0.78127 0.13981 -0.087959 0.3918 0.33396 -0.087128 -0.37564 -0.097897 -0.89879 0.072985 0.22723 -0.087651 -0.17054 -0.32055 -0.36204 0.060196 -0.61865 -0.056385 0.44941 -0.24249 0.6596 0.48501 -0.027045 0.44094 0.015712 0.048338 -0.2148 -0.055339 -0.54533 0.4822 -0.020038 -0.07364 0.16079 0.12009 0.63368 -0.1233 0.085656 -0.22256 0.145 0.090086 0.063695 0.50291 -0.25466 -0.099872 0.52039 0.24624 0.32341 0.010422 -0.0069579 0.14784 -0.070512 0.6732 0.07571 0.83838 0.19129 -0.25733 0.081189 0.28698 -0.84757 -0.32298 0.16865 -0.45808 -0.46007 0.038468 -0.35081 -0.045095 0.15089 0.27489 -0.35296 -0.021912 -1.14 -0.59988 0.35463 0.24843
Harvard -0.73558 0.39055 -0.38864 -0.41021 0.65684 0.38474 0.56422 -0.41975 0.17596 0.053657 -0.18655 -0.068898 -0.29151 -0.48685 0.043402 -0.14563 0.0070172 -0.49616 0.20152 -0.26343 0.012036 -0.064836 -0.45031 -0.38026 0.3688 -0.24315 0.15865 0.099691 -0.28057 0.28936 0.33944 -0.55104 0.28534 0.36552 -0.50382 -0.13444 0.11058 0.11946 0.32443 -0.53092 -0.23205 0.95603 0.078243 -0.21241 0.015375 -0.42298 0.97975 0.91568 0.34522 0.65433 -0.21393 -0.28162 -0.15862 0.67844 0.12476 -0.22325 -0.34218 -0.076263 0.22991 0.43139 0.25497 -0.53139 0.4598 -0.10077 0.19704 0.48289 -0.13664 0.36648 -0.035489 0.0075525 0.27548 0.1861 0.24206 -0.46168 -0.21277 0.23159 -0.15808 -0.10096 0.47776 0.29284 0.013851 0.46034 -0.026438 -0.11069 -0.47977 -0.16752 -0.57398 0.22068 0.25204 -0.20709 0.68487 -0.28848 0.19506 0.2671 -0.37873 0.27282 -0.74171 -0.68666 0.033548 0.36299
psychology -0.46602 -0.037226 -0.10747 -0.15769 0.59812 0.12304 -0.092212 -0.17779 0.65307 -0.013674 -0.31065 0.19274 -0.11689 -0.43048 -0.14612 0.50935 -0.080261 -0.79646 0.22199 -0.066699 -0.10945 -0.38929 -0.1053 -0.063166 -0.10739 0.058902 0.68453 -0.24811 -0.79966 0.28919 0.16878 -0.87789 -0.10534 0.25273 -0.67392 -0.093212 -0.30386 0.14571 0.52282 -0.60443 0.14283 0.93541 0.15822 -0.24089 0.82478 0.17004 0.30186 0.26226 0.1402 1.0312 0.51666 0.011672 0.02829 0.48972 -0.044993 0.49954 -0.43431 0.060212 0.54956 0.40543 0.33015 -0.46321 0.51956 -0.074496 0.66781 0.03064 7.8454E-4 -0.22873 -0.35743 0.024 0.18131 0.16763 0.2324 -0.18237 -0.17288 0.037492 -0.062408 -0.39811 0.45354 0.20519 0.10185 0.22338 0.34617 0.030013 0.24621 0.066348 -0.12181 0.1529 0.59538 -0.16706 0.3569 -0.23731 0.17877 0.83552 0.11266 -0.33953 -0.78916 -0.20696 -0.41631 -0.13352
medal 0.09386 -0.15062 -0.20293 0.52142 -0.42167 -0.74953 0.17389 -1.415 0.40054 0.65079 0.11369 -0.38083 -0.33406 0.024974 -0.21043 -0.34294 0.51338 -0.21899 0.59057 -0.5798 -0.21544 -0.18209 -1.064 0.054233 -0.090548 -0.43224 0.59467 0.27641 -0.085725 0.68713 -0.2126 0.29253 -0.084178 -0.23246 -0.48365 -0.022862 -0.50815 0.31132 0.018859 -0.080357 -0.98061 0.22483 -0.25839 -0.39404 0.4115 -0.26867 0.52315 0.82033 0.083375 0.42509 0.93118 -0.081683 0.15074 0.2298 1.1333 -0.59999 -0.0034941 -0.67835 -0.41254 -0.18785 0.62878 -0.12989 0.91989 -0.58642 -0.13469 -0.54138 -0.24693 -0.042426 0.22862 0.179 -0.21438 0.23216 0.0085492 0.23923 0.10744 0.90265 0.52616 0.38177 0.62023 -0.20206 0.12056 0.14603 -0.085783 -0.20481 -0.35266 0.70055 0.35215 0.92923 0.44866 0.14895 -0.11539 -0.31843 0.056755 -0.719 -0.6991 -1.0637 -0.26363 -0.18807 -0.43483 -0.36919
company -0.1674 -0.4715 0.12171 -0.6971 -0.16907 0.48764 0.11725 -0.032589 -0.084517 -0.78378 -0.17241 0.25402 -0.34583 0.12865 -0.085303 -0.20812 -0.16698 -0.080437 -0.19185 -0.14282 0.18137 -0.12255 -0.31117 -0.16266 -0.073483 -0.53598 0.32737 0.46392 -0.024677 0.1095 -0.1513 0.60662 -0.34137 -0.066984 -0.20859 -0.24206 -0.075346 -0.052143 0.30354 -0.21809 -0.023975 0.30354 -0.16042 0.093541 0.25319 -0.055125 0.321 0.59689 -0.092556 0.11526 0.010465 5.0925E-4 -0.028312 0.093831 0.039399 0.22178 0.1261 -0.11043 -0.023675 0.25176 0.63301 -0.20332 -0.21296 0.17574 -0.27257 -0.29825 0.018131 -0.28557 -0.11977 -0.13171 -0.23137 -0.20825 -0.072493 0.038159 -0.01067 0.21657 -0.023977 0.37855 -0.20227 0.23168 -0.17111 0.29742 0.49746 0.447 0.029399 0.3421 -0.48537 0.22165 -0.073194 0.32957 0.1212 -0.49354 0.12544 -0.18879 -0.15049 -0.050777 -0.15282 -0.1428 0.50014 -0.16811
live -0.29778 0.13355 0.38003 -0.058812 0.1459 -0.4003 -0.62352 0.81993 -0.22821 -0.050172 -0.35072 0.19541 0.044069 0.50242 -0.10934 -0.73556 -0.36299 -0.20133 -0.32588 0.027425 -0.10065 -0.26559 -0.010379 -0.025153 -0.12342 0.011441 0.30841 -0.10019 0.15149 0.33502 -0.057127 0.42896 0.18931 0.20592 -0.93172 -0.045618 -0.13805 0.041459 -0.55477 -0.029802 0.13651 0.20805 0.55115 -0.025886 0.21135 0.27015 0.21288 0.25691 -0.2363 -0.052862 0.16176 0.04503 0.31942 0.42836 0.042346 0.37282 0.35255 0.28017 -0.29612 -0.40616 0.37281 -0.38283 0.45142 0.15847 0.32134 -0.17281 -0.020906 0.36097 -0.28378 0.23328 -0.21591 -0.020177 0.68939 -0.20029 -0.05431 0.034531 0.39433 0.27041 -0.077292 -0.071408 -0.010445 0.004886 0.57355 -0.25005 0.16721 0.14195 -0.1657 -0.2454 0.24173 -0.19825 -0.063913 -0.16658 -0.12835 0.18842 -0.38415 -0.5756 -0.093553 -0.32764 0.036267 -0.2401
holy -0.060026 0.51974 -0.053797 -0.33257 0.14477 0.24187 0.095279 0.25962 0.58958 0.27319 -0.3835 -0.11556 0.22972 0.33337 -0.084187 0.24936 0.26836 -0.3308 0.049645 -1.1529 -0.4181 -0.23316 -0.39212 -0.17102 0.11525 -0.29684 0.077519 -0.17992 -0.088564 0.27662 0.32296 -0.015799 -0.099227 0.26532 -0.069428 -0.92781 0.32839 -0.075585 -0.36823 0.54909 -0.024093 0.1052 0.11621 -0.43777 0.43603 0.49594 0.48374 0.29267 -0.41778 -0.44356 -0.02701 -0.42514 0.019033 0.30811 0.2589 0.27587 -0.070364 0.72093 0.33497 -0.47429 1.009 0.54713 0.82783 -0.18415 -0.051181 -0.55334 0.34726 0.21034 0.1269 -1.0536 -0.4378 0.41185 0.74718 0.26812 0.14844 -0.27371 0.23672 0.68451 0.66699 -0.23377 0.30964 0.072152 0.93137 -0.095556 -0.23609 0.058446 -0.75115 0.58579 0.16731 -0.92493 -0.1134 0.15238 0.6882 0.34234 -0.21342 -0.83059 -0.075786 -0.42479 0.20797 0.061407
ticket -0.54128 -0.087565 0.057234 -0.38106 -0.23062 -0.15749 -0.22032 -0.4596 -0.11091 0.07781 -0.93621 -0.24331 -0.15363 0.46012 0.25746 -0.65369 0.41394 -0.49104 -0.14063 -0.59779 0.22209 0.15504 -0.25502 0.43525 0.25685 -0.15436 0.72263 0.39028 0.702 -0.29919 -0.22904 -0.046545 0.64412 -0.42061 -0.22534 -0.33314 0.30611 0.051157 0.089291 -0.25494 -0.13721 -0.057158 0.23064 -0.32233 0.0042363 0.20509 -0.15651 0.57178 0.025124 -0.61698 -0.026805 0.32463 -0.16542 0.26689 0.3393 0.034184 0.27761 -0.19202 -0.40622 0.35631 0.24164 -0.1848 0.43791 0.31514 0.065335 -0.28211 -0.28269 -0.33763 0.062491 -0.37169 0.10206 -0.27908 -0.03614 0.3707 0.16546 0.31937 -0.18516 -0.4106 -0.59735 0.057716 -0.091594 -0.57711 0.0034787 0.2089 0.83593 -0.098912 -0.54403 0.33192 0.40461 0.15569 0.14965 -0.14932 -0.074475 -0.1103 -0.19267 -0.70259 -0.33491 -0.70955 -0.052595 -0.095177
victory -0.34188 -0.39566 0.14035 0.31608 -0.0069403 -0.5443 -0.21123 -0.68689 -0.15117 -0.013744 -0.29835 -0.6218 -0.075243 -0.11883 0.70133 -0.24288 0.055666 -0.084089 0.20978 -0.20418 0.019807 -0.28761 -0.94075 0.11125 -0.14423 -0.30771 0.65568 -0.049004 -0.19295 0.7799 0.35041 -0.012582 -0.028675 -0.15818 -0.43211 -0.36247 -0.32771 -0.16211 0.1242 0.091366 -0.039268 0.33615 -0.1387 -0.19028 -0.13702 -0.42571 0.064527 0.068197 0.33112 -0.50373 1.0969 0.18164 -0.31271 0.1178 0.41758 0.0048373 -0.065169 -0.14347 -0.32899 -0.71718 0.2826 -0.49076 0.4314 0.4831 -0.26397 -0.52484 0.18702 0.26277 0.49849 -0.37452 0.039452 0.61372 0.608 0.072147 -0.22058 0.43521 0.27264 0.1381 0.77864 0.74938 0.33827 0.1704 -0.080817 0.064842 0.78371 -0.29615 0.26111 0.7006 0.24487 0.19496 0.14074 -0.092223 0.17365 -0.24709 0.21096 -0.11881 0.047342 -0.21436 0.045295 0.052001
football -0.64788 -0.61307 0.65582 -0.10491 0.31617 -0.06728 -0.062008 -0.41723 -0.056201 0.082007 -0.74077 0.57429 0.31134 0.35197 0.45944 -0.41717 0.30525 -0.29965 -0.2101 -0.50417 4.708E-4 0.082207 -0.092962 0.22538 -0.32321 -0.21535 -0.2651 0.071294 -0.41598 0.39311 -0.13667 -0.38333 0.28777 -0.46641 -0.19877 -0.40385 -0.45297 0.042407 -0.23887 -0.14688 -0.4877 0.093947 0.080242 -0.29541 0.20927 0.12762 0.4926 0.79136 -0.70735 0.56913 0.34522 -0.15676 0.16476 0.2634 -0.042334 -0.1021 0.0072997 0.061358 -0.083574 0.13228 0.69448 -0.06027 0.36711 0.50614 0.072918 0.047692 0.10865 -0.23441 0.37648 -0.218 0.3475 0.018893 0.41885 -0.38589 -0.38618 0.45983 0.31858 -0.78516 0.064436 -0.15777 -0.10024 0.21875 0.2486 0.026007 0.28636 -0.0054339 0.2156 -0.049339 0.090958 0.09436 0.16903 -0.21338 0.17409 0.16831 -0.32524 -0.74951 -0.41636 -0.016826 -0.58165 0.32519
stroke 0.0019151 -0.14593 -0.022448 0.41701 0.084941 -1.0709 -0.11286 -0.23248 0.31307 0.28569 -0.45027 -0.14767 -0.33094 -0.43689 0.051782 -0.0019031 0.64321 -0.57239 0.02199 0.19716 -0.17355 0.044594 -0.56347 0.26231 0.094584 0.18397 0.24881 0.63168 -0.40779 0.62529 -0.88704 0.56357 -0.25993 0.02133 -0.84231 0.15636 -0.079073 0.22979 0.090201 -0.36323 -0.14643 0.90259 0.19843 0.55298 -0.4912 -0.58313 -0.1009 -0.075174 0.46489 0.67822 -0.035102 0.27132 -0.072575 0.70146 0.40297 0.08111 -0.077575 0.064534 0.4661 -0.2736 0.69718 0.64049 -0.024523 0.68672 0.21586 -0.24643 0.017458 0.18678 0.1281 -0.025013 -0.30946 -0.024157 0.41786 0.24996 -0.51651 0.38043 -0.23922 0.78142 0.2458 0.24863 0.25619 -0.13304 -0.029518 0.12778 0.23023 0.33594 -0.38431 0.0096437 0.29112 0.34266 0.34945 -0.04526 0.20331 0.36261 0.31008 -0.064093 -0.48299 -0.64167 0.25703 0.08696
environment 0.41131 -0.23118 0.28401 -0.21622 0.27151 0.27357 -0.30076 -0.26327 0.25051 0.085737 -0.59143 0.14306 0.046203 0.33331 -0.090675 -0.22001 -0.16849 -0.31896 -0.34299 0.2356 0.020071 -0.22035 -0.13098 -0.16177 -0.085818 0.054012 0.57815 -0.081557 -0.25769 0.039039 -0.22122 0.38089 -0.20223 0.28618 -0.12917 0.19621 -0.64436 -0.26277 -0.012044 -0.02131 0.19488 -0.073203 0.3737 -0.29715 0.18063 0.03256 0.41966 -0.14862 -0.26467 0.15752 0.4187 0.12975 -0.24914 0.50502 -0.91049 0.50309 -0.065134 0.044206 -0.1336 0.059358 0.6633 -0.39937 -0.083343 0.042876 0.42459 0.085747 -0.60185 -0.55934 -0.35987 -0.23522 0.10789 -0.11623 0.22572 -0.02919 -0.22037 0.5193 0.35026 0.2048 -0.29346 -0.078821 0.35073 0.44312 -0.026754 -0.29895 0.27626 0.29252 -0.68718 0.29089 0.18204 -0.15256 0.085771 -0.24697 0.49202 0.066566 0.12172 -0.028705 0.017385 -0.4259 0.10426 -0.070357
coffee -0.34506 0.13591 0.041121 0.06294 0.30336 0.051387 0.23047 -0.33231 0.34966 0.020284 -0.3873 0.62368 -0.28743 0.11873 -0.16347 -0.24268 0.44101 -0.51271 -0.10879 -0.54549 -0.042619 -0.085738 0.18425 0.096987 0.065486 -0.15642 -0.62932 0.57507 0.12598 0.47714 -0.28667 -0.012501 0.22868 -0.18943 -0.40041 -0.39421 0.8397 -0.28226 0.40849 -0.55441 0.089692 0.0014095 0.49615 -0.08689 0.18393 0.073394 0.73459 -0.0065789 0.10903 -0.39501 -0.056458 0.5303 -0.034278 -0.083559 -0.17519 0.059077 -0.11401 -0.28128 0.3289 0.12228 0.47556 0.07701 0.30838 0.0049456 -0.17223 -0.36465 -0.18297 -0.49667 -0.044846 -0.50371 0.44758 0.21505 0.33503 0.43591 0.11816 -0.13626 0.43289 0.42123 -0.051836 -0.012304 0.61051 -0.11904 0.46564 0.51988 0.34336 0.45263 -0.8653 -0.039481 0.41749 0.03743 -0.070519 -0.56048 -0.077328 0.082851 -0.65517 -0.63651 -0.35437 -0.5882 0.31222 0.088052
baby 0.088106 -0.030199 0.014637 0.20583 0.033518 -0.31407 -0.16112 -0.11267 -0.13913 -0.30924 -0.23733 0.47322 -0.17014 0.28018 -0.077934 0.18151 0.38118 0.077154 -0.74295 -0.82624 0.58832 -0.072817 -0.43337 0.16338 -0.14981 -0.011446 -0.40886 0.58043 0.039147 0.36803 0.38332 0.27626 -0.035949 0.041494 -0.39831 0.46935 0.2573 -0.10354 -0.46167 -0.37222 0.40102 0.62625 0.4624 -0.18654 0.1157 0.23946 0.047041 0.62904 0.40901 0.55118 0.20109 -0.38052 0.31755 0.42335 -0.092509 -0.18007 0.087335 -0.06445 -0.18263 0.63393 0.63986 -0.11575 0.21529 -0.40111 0.030068 -0.36555 -0.21073 -0.070792 -0.21895 -0.51742 -0.14002 0.029685 0.56324 0.13507 0.12724 0.16023 0.38071 0.64175 -0.20242 0.39579 0.91512 0.10535 0.12288 0.19078 -0.54038 0.30134 0.042133 -0.47872 0.25802 0.89814 -0.18848 -0.40963 -0.36984 0.18382 0.34637 -0.30263 -0.81639 -0.14737 0.37871 -0.22333
personnel -0.018488 0.074435 0.72616 0.082697 -0.52979 0.028898 -0.071432 -0.89303 0.54476 -0.34251 -0.63254 0.3043 -0.421 -0.22987 0.21833 -0.15841 -0.20496 0.060973 -0.28832 -0.035754 0.071077 -0.12428 -0.24692 0.21697 0.19839 0.30895 0.80651 -0.26353 -0.14553 0.12858 0.24826 -0.073239 -0.31645 0.11521 -0.47981 0.37912 -0.066186 0.56396 -0.37268 0.26233 -0.54585 -0.026431 0.083389 0.31777 0.53667 0.12208 0.25074 0.50228 -0.19373 -0.16838 -0.45538 0.017672 0.14135 0.13064 -0.25727 -0.10961 0.18327 0.078213 -0.0053328 0.12944 0.96862 -0.2045 -0.08101 0.0083545 0.13446 -0.25764 -0.42684 0.020083 0.16338 -0.28515 -0.47714 0.082405 -0.045981 -0.21559 0.34687 0.43879 -0.046653 -0.21243 -0.16566 0.23398 -0.18352 0.079045 0.5434 0.158 -0.16669 0.060886 -0.14722 0.19967 -0.54227 0.15047 -0.10338 -0.49622 0.40238 -0.072714 -0.21722 0.14528 0.10088 -0.53291 0.17763 0.75171
family -0.10664 -0.12821 0.4615 0.14846 0.0027036 -0.22294 0.34127 0.39513 0.079774 -0.28409 -0.28157 0.25072 -0.18787 0.58131 0.093022 -0.06449 -0.034542 0.19613 -0.20196 -0.17733 -0.30115 0.19797 -0.2749 -0.22716 -0.15579 -0.26416 0.47944 0.28366 0.28372 0.021323 0.067843 -0.19065 0.49825 0.12272 -0.8057 -0.17234 0.082493 0.051945 -0.30943 -0.22331 -0.029443 0.42892 0.071927 -0.088791 0.49611 0.67772 0.011688 0.23092 -0.009523 0.39072 0.27996 -0.042053 0.043781 0.35118 -0.0044428 0.25096 0.015549 0.16801 -0.14848 0.14627 0.80153 -0.26857 0.17204 -0.32238 0.33298 -0.10964 0.1782 -0.41311 0.016685 -0.26989 -0.26199 0.31523 0.11757 -0.10117 0.15571 0.085141 0.070289 0.07024 0.15314 0.19389 0.24063 0.13329 0.21407 0.0031494 0.053365 0.54299 -0.16403 0.041369 -0.34841 0.25663 -0.17849 -0.20808 0.13868 -0.17895 -0.074207 -0.092397 -0.55742 -0.19182 0.43064 -0.25978
hypertension -0.62185 0.12553 0.045883 -0.14773 0.4009 -0.5187 -0.37692 -0.34178 0.099053 0.0024415 -0.489 0.56004 -0.34197 -0.55655 -0.074096 0.055923 0.24863 -0.63131 0.091958 -0.57481 -0.20006 0.12079 0.064159 0.256 0.014862 0.4906 0.79373 0.21803 -0.40345 0.15073 -0.096689 0.4305 -0.28267 0.52275 -0.61768 0.077986 0.26023 0.23079 0.15882 -0.27249 0.18655 0.28585 -7.5437E-4 0.0076511 -7.0441E-4 -0.19588 -0.057731 0.29214 0.20826 0.67034 0.22017 0.13889 0.045979 0.62324 -0.052365 0.19344 0.10154 -0.33389 0.78918 0.54472 0.66009 0.017398 -0.19479 0.16271 0.45651 -0.057266 -0.16521 -0.43625 -0.23623 -0.15078 0.026586 -0.1058 0.23061 -0.26625 -0.20335 0.06647 0.28763 0.57917 0.48417 0.21653 0.1426 0.11412 0.21838 -0.38009 0.075684 0.14422 -0.13891 -0.44437 0.31285 0.02359 0.23347 -0.22714 0.36415 0.43987 -0.18534 0.10322 -0.40695 -0.50157 0.24658 0.023369
president -0.25649 -0.061395 0.129 -0.17701 0.18035 0.07268 -0.12288 -0.28027 0.15888 -0.17398 -0.61166 -0.067623 -0.03429 0.12875 0.57508 -0.27061 0.14634 0.16687 0.27647 0.17633 0.64648 0.33864 -0.35234 0.17081 -0.30519 -0.34543 0.19017 0.025439 0.14636 -0.096785 -0.10179 0.10136 -0.036997 0.41203 -0.85249 -0.66344 -0.29744 0.28607 -0.14365 -0.51984 -0.17532 -0.10739 -0.17662 -0.33482 -0.32474 -0.16917 0.54354 0.81273 -0.079727 0.3302 0.20177 -0.54377 -0.19504 0.34603 0.10053 -0.2155 -0.047641 0.21938 -0.22156 0.49065 0.12039 -0.43166 0.0012862 -0.46326 -0.088718 -0.31887 -0.17342 -0.34816 0.10296 -0.090242 0.10751 0.33854 0.46398 -0.20519 -0.14167 0.38835 0.39319 0.31141 0.10854 0.17429 0.10254 -0.024919 0.041063 0.57401 0.072561 -0.16013 -0.68844 0.423 0.20877 -0.1075 0.44699 -0.19212 0.2208 -0.020033 -0.019634 0.053467 -0.10629 0.28409 0.41646 0.092553
atmosphere 0.46835 -0.23116 0.17179 -0.28931 0.77972 -0.060102 -0.20619 -0.10173 0.19047 0.28973 -0.2503 -0.25315 0.71249 0.013032 0.20981 -0.58042 -0.25602 -0.66941 -0.37518 -0.069982 -0.54837 0.09737 -0.0087839 0.02839 -0.25798 0.26264 0.063021 0.55926 -0.35383 0.1906 0.31269 0.29518 -0.22724 0.27809 -0.30819 -0.15905 0.01724 -0.2925 -0.2725 -0.20046 -0.038303 -0.33647 0.077638 -0.35172 -0.28135 0.12414 0.43869 0.42832 -0.28619 -0.34462 0.60303 0.021142 0.47302 0.19418 -0.65508 -0.20104 0.1627 -0.19624 -0.0051238 0.075256 1.1471 -0.036462 0.26341 0.31494 0.44749 -0.50013 -0.38865 0.050784 -0.31403 -0.26001 0.16807 0.13944 0.12849 0.053279 -0.15808 0.6065 0.019133 0.031626 0.15608 -0.42027 0.11827 -0.13554 -0.51635 -0.32744 0.39767 0.38264 -0.52003 0.36409 0.51715 0.15926 -0.014441 0.0695 0.38919 -0.11719 2.5888E-4 0.016252 -0.34336 -0.55519 0.21192 0.35748
practice -0.32231 -0.20325 -0.18022 -0.33453 0.41371 -0.0041015 0.078637 -0.56326 0.077566 -0.058612 -0.47849 -0.22455 -0.22293 -0.11435 0.0049306 0.12287 0.24906 -0.22045 -0.66436 0.069396 0.13141 -0.010397 -0.40254 -0.24538 -0.22816 -0.24207 0.32062 -0.51128 -0.44554 -0.17103 -0.11905 0.12561 0.1996 -0.15688 -0.22715 0.12272 0.22605 -0.33973 -0.076659 0.098225 -0.59549 0.65904 0.14673 -0.35439 0.39319 -0.12865 0.18376 0.035103 -0.022839 0.37297 0.40353 0.020341 -0.28109 -0.039449 -0.35477 0.41136 0.10452 -0.3786 0.060639 -0.19337 0.59827 -0.12812 0.03339 0.72226 -0.10522 0.32854 -0.32569 -0.10308 -0.096634 -0.30808 -0.1573 -0.061992 0.53222 -0.20077 0.21096 -0.0030286 -0.13838 0.40158 0.37468 0.24811 0.087008 0.24147 0.77123 -0.011084 -0.2123 0.17381 -0.063714 -0.14561 0.3464 -0.23188 0.060054 -0.24475 0.6568 0.61441 -0.11952 -0.16165 0.10956 0.31711 0.17438 0.26171
movie 0.098465 0.22529 0.22748 -0.56556 -0.48582 0.16967 -0.33351 0.14376 0.43446 -0.45354 0.019726 0.50995 0.10682 0.16963 -0.13315 -0.29759 0.062665 -0.59395 -0.2527 -0.053655 -0.49473 -0.26546 -0.40952 0.23609 -0.72766 -0.10061 0.25697 -0.096235 0.28406 0.43444 0.22961 -0.14031 0.010463 -0.46101 -0.47492 -0.30618 -0.068703 0.22049 0.040225 -0.97273 0.1693 -0.004607 -0.1695 -0.14487 -0.089908 0.21097 0.37257 0.77898 -0.31206 0.29851 0.75657 0.44379 0.20011 0.22627 0.72025 0.20524 0.44702 -0.33722 0.029205 0.19601 0.066122 -0.24215 0.48543 -0.12752 0.68615 -0.10826 -0.065603 0.21119 -0.088083 -0.26403 -0.23546 -0.14061 0.094808 0.14865 -0.49523 0.42553 -0.052613 7.8518E-4 -0.19175 -0.28919 -0.03478 -0.16579 0.087004 0.54609 0.1908 0.11102 -0.42256 0.10937 -0.28394 0.23113 -0.31212 -0.63966 0.088712 0.16359 -0.28298 -0.2264 -0.72758 -0.3263 -0.10269 -0.50454
popcorn -0.35228 -0.10947 0.28067 0.18484 0.19975 0.0069504 -0.0012838 0.14366 0.34795 -0.15742 -0.3172 0.40232 0.11373 0.081874 -0.3375 -0.33475 0.45035 -0.52893 -0.13824 -0.4971 -0.24887 -0.28443 -0.026543 0.1705 -0.080999 -0.35051 -0.31668 0.12708 0.33961 0.5768 0.27792 0.1804 -0.1453 0.35326 -0.0060371 0.12473 0.68262 -0.37122 0.028759 -0.57825 0.32958 -0.18385 0.26584 -0.041784 -0.24444 0.14526 0.49038 0.39256 0.32021 0.14521 0.48064 0.29035 0.024549 -0.18482 0.10473 0.34652 0.22157 -0.85319 0.61891 0.45148 0.38828 -0.050686 0.59729 0.51741 0.53201 -0.52461 -0.10479 -0.21442 -0.1201 -0.57421 -0.24828 0.22718 0.41933 0.28497 -0.1036 -0.11877 0.30281 0.042329 -0.0089151 -0.30387 0.14452 0.087009 0.026986 0.049107 0.28332 0.25502 -0.5229 -0.20272 0.19561 0.28629 -0.43257 -0.64417 0.097315 0.21181 -0.52484 -0.41253 -0.6261 -0.27135 0.1908 0.15885
recommendation 0.22457 0.31192 -0.56372 -0.16095 -0.12604 0.41238 0.48324 -0.60469 0.25608 -0.75143 -0.59752 0.17505 -0.0493 -0.12156 0.92781 -0.2914 -0.062803 -0.33873 0.36312 -0.029487 0.45966 0.23706 -0.23642 0.016349 0.1831 -0.26236 0.3535 -0.2383 0.32098 0.10888 -0.098514 -0.071156 -0.011574 -0.15215 -0.59636 -0.052214 0.2796 0.015475 -0.13601 -0.40927 0.0080659 -0.052122 0.15471 -0.069388 0.41837 0.053488 0.096479 0.33559 0.15332 0.327 -0.19712 -0.078739 -0.77485 0.41211 -0.38733 -0.15297 -0.035775 -0.36693 0.58714 -0.093822 0.64216 -0.042094 -0.081991 0.020195 0.40889 -0.30899 -0.64588 -0.30606 -0.29153 -0.14444 -0.068139 0.029815 0.03444 0.10855 0.1373 0.033325 0.065973 0.39711 0.43261 -0.12358 -0.20048 0.21062 0.34742 0.28828 -0.057426 0.56184 0.09652 0.3427 0.14772 0.34626 -0.08067 0.083467 0.09654 0.054418 -0.19593 0.083495 0.0082375 -0.1384 -0.10235 -0.55211
focus 0.13035 -0.10933 0.20319 -0.12515 0.13957 0.15317 0.26042 -0.39873 -0.25603 -0.38095 0.19233 0.2336 -0.12564 -0.2546 0.70296 -0.015047 0.01154 -0.25757 -0.2763 -0.0089871 0.028846 0.12453 0.019957 0.25991 -0.15519 -0.33038 0.63203 -0.31924 -0.15924 -0.26664 -0.17274 0.012715 0.5212 0.1273 -0.49139 0.38162 0.077422 -0.24935 0.21675 -0.44653 0.3413 0.040254 -0.059168 -0.10282 0.42612 0.19965 0.082463 0.16754 -0.12213 0.10119 0.62008 -0.52071 -0.10311 0.56696 -0.37364 -0.10665 0.11273 0.025528 -0.007827 -0.20236 0.33509 -0.15038 -0.258 0.27791 -0.010178 -0.15805 -0.68169 -0.18304 -0.16755 -0.41526 -0.20377 -0.032274 0.29128 -0.13763 -0.27123 0.10169 0.51684 0.16226 -0.16708 0.30674 -0.090451 0.64903 0.50832 0.31235 0.086262 0.33088 0.017946 0.20392 0.30243 -0.42369 -0.14707 -0.043512 0.28414 0.18953 0.084939 -0.3608 -0.11569 -0.46817 -0.24297 -0.098969
attempt 0.046925 0.18848 -0.14024 0.039359 -0.18734 0.026732 0.26855 -0.32718 0.22194 0.032286 -0.31981 -0.089731 0.24391 0.35963 0.694 -0.3785 0.031171 -0.10209 -0.4911 0.16767 -0.1162 -0.024781 -0.56928 0.32066 0.17492 0.015794 0.38299 1.0044 -0.22892 0.52595 0.097838 -0.07559 0.039368 -0.48833 0.069882 -0.37699 0.2866 -0.34856 0.15514 0.25911 -0.218 -0.14816 0.10145 0.10317 0.18953 0.22088 -0.11275 0.17231 -0.10859 -0.0015105 0.41524 -0.11715 -0.42278 -0.2226 -0.0081901 -0.27173 -0.15611 -0.21415 0.0073347 -0.37481 0.4381 -0.1049 0.58368 -0.11916 0.18798 0.30651 -0.0040001 0.2485 -0.086401 -0.27172 0.2092 0.33267 0.55254 -0.82797 -0.41572 0.55855 -0.078841 0.53379 -0.41584 0.22605 -0.4161 -0.16611 0.22885 0.20654 0.22589 0.13008 -0.19889 0.243 0.37681 -0.04409 -0.374 -0.06335 0.51599 0.13057 0.4113 0.35143 -0.08068 -0.11407 0.31032 -0.34739
approach 0.69946 0.021692 -0.20139 -0.40418 0.24986 0.23533 0.029282 -0.44392 0.22418 -0.30894 -0.11933 0.14252 0.038904 -0.39771 0.63372 0.070625 -0.076458 -0.323 -0.4282 0.34057 0.15067 0.082703 -0.20129 0.25215 -0.31132 0.16062 0.44214 -0.10592 -0.12213 -0.059103 0.07133 0.10059 0.014481 -0.015361 -0.24479 -0.24268 -0.23503 -0.094417 0.14927 0.0086061 -0.079753 0.5552 0.1721 -0.093668 0.069178 0.3631 0.15425 0.03158 -0.087087 0.089144 0.42858 -0.062761 -0.39704 0.51529 -0.01413 -0.14383 -0.074821 0.18118 0.51094 -0.059373 0.4512 0.021606 -0.25564 0.55965 0.21705 -0.097634 -0.46346 -0.24588 -0.47655 -0.20365 0.21393 9.0967E-4 0.58877 0.094111 -0.27336 0.26999 0.081845 0.41549 0.14825 0.20698 0.060758 0.05867 0.4089 -0.0049247 0.33712 -0.14129 -0.074342 0.37993 0.4936 -0.026552 -0.010608 -0.4366 0.47203 -0.03727 -0.13217 0.43729 -0.13452 -0.12043 -0.030027 -0.16209
number -0.43718 0.41757 -0.13847 0.0034892 -0.25018 0.15494 0.39288 -0.53318 -0.32908 -0.12 -0.45721 0.055991 -0.091266 0.18728 0.45678 -0.663 0.026305 -0.52075 -0.22039 0.045072 -0.46683 -0.1901 -0.054217 -0.031045 0.3355 -0.13501 0.51262 -0.036809 0.17137 -0.05259 -0.27674 0.38595 -0.19006 0.044777 -0.20491 0.47781 0.034967 -0.46809 -0.30191 -0.027248 -0.31643 0.3557 0.15068 0.31222 0.039523 -0.26784 0.061914 0.54051 0.034383 -0.22154 0.0015114 0.0031734 0.18065 0.29611 0.1931 0.14368 0.20742 0.37341 0.4828 -0.45677 0.5979 0.10004 0.041872 -0.069405 -0.017036 -0.16952 -0.29995 0.073886 -0.28935 -0.3738 -0.040983 -0.30505 0.29913 0.15724 0.25601 0.12475 -0.014272 0.14377 -0.47913 0.6847 0.34732 -0.1576 -0.40362 -0.28315 -0.15709 0.08195 0.2729 -0.12516 -0.215 -0.053833 0.21567 -0.43631 0.63697 0.066793 -0.13519 -0.070545 -0.4222 -0.49316 -0.032306 0.11759
property -0.3463 -0.29412 0.05767 -0.4271 -0.33044 -0.19525 -0.42546 0.012003 0.18683 0.12732 -0.37424 0.40111 -0.10271 0.35562 -0.37719 -0.7056 -0.48751 0.0012713 -0.037889 -0.32178 -0.37549 0.21636 -0.15586 -0.39852 -0.2133 -0.48467 0.86361 -0.12594 -0.29542 -0.061123 -0.4205 -0.18929 0.21013 0.1625 -0.72288 0.26671 -0.10851 -0.39487 0.46242 0.43829 0.2663 -0.058008 0.40941 0.076555 0.31644 -0.008053 -0.55579 0.58886 -0.30927 0.34175 -0.18402 0.20157 -0.058255 0.27812 -0.25497 0.19486 -0.1501 0.040691 -0.0437 0.32587 0.59828 -0.106 0.17766 -0.26501 -0.2057 -0.051244 0.18259 -0.4881 0.061897 -0.40242 0.17478 0.44506 -0.12418 0.2804 -0.19051 0.66595 -0.13893 -0.09659 -0.6033 0.39484 0.27209 -0.13142 0.83243 -0.17749 0.38928 -0.11288 -0.41852 0.26191 0.072151 -0.02506 -0.16433 -0.48026 -0.23267 -0.34956 0.25803 -0.23075 -0.19902 -0.07971 0.4152 -0.35434
fingerprint 0.029223 0.44303 -0.14486 0.36927 -0.48343 -0.14484 0.35852 -0.016653 0.096033 -0.38588 -0.3764 0.24267 0.36395 0.11749 -0.027819 0.021932 -0.022185 -0.50925 -0.21179 -0.21063 -0.25657 -0.29589 -0.20602 0.0015098 0.55559 -0.41312 0.36332 -0.14227 -0.38093 0.22363 -0.084726 -0.0013929 -0.28323 -0.2502 -0.62162 -0.23602 0.323 -0.18057 -0.15245 0.10859 -0.21554 0.17763 0.21492 -0.093668 0.44799 -0.0375 0.13265 0.22993 -0.18677 0.62629 -0.14573 -0.13781 0.23042 0.11588 0.043169 -0.19075 0.28994 -0.34206 -0.021744 0.50382 0.49466 -0.12267 0.02373 0.037715 0.1133 -0.42097 -0.7553 0.59595 -0.33134 0.01808 -0.14468 0.32395 -0.01972 -0.27241 0.035194 0.037115 -0.24778 0.0073915 -0.25465 0.77483 0.21406 -0.15399 0.51511 0.055447 -0.34089 0.077027 0.5397 0.1309 1.1236 0.35903 0.059985 -0.46509 0.21605 0.7068 0.072491 0.094026 -0.20734 -0.43767 0.35463 -0.10816
reservation -0.026042 -0.30758 0.086349 -0.38503 0.080829 0.075577 4.1442E-4 -0.0025297 -0.20901 -0.40962 -0.83011 0.08851 0.13907 -0.0063287 0.056078 -0.053279 0.092999 0.0028589 -0.09871 -0.27138 -0.25131 0.30103 -0.031339 0.046251 0.13627 -0.1834 0.79057 0.144 0.47258 0.076481 -0.37861 -0.047837 -0.13858 0.073677 -0.56215 -0.1826 0.23875 -0.087194 -0.18418 0.28054 -0.29106 -0.18794 0.27483 -0.002634 0.27652 0.20012 0.16157 0.14485 0.21491 0.10634 -0.037303 0.32589 -0.20948 0.37243 -0.16106 -0.048474 -0.2409 -0.014219 -0.14099 -0.13886 0.70307 -0.059581 0.2664 0.1801 0.10892 -0.074396 -0.25768 -0.037336 -0.18217 -0.275 0.012215 -0.27001 -0.162 0.12759 0.14522 0.33378 -0.0050188 0.040514 0.22802 0.14869 0.16995 -0.14403 0.53286 -0.17232 0.26559 -0.25067 -0.46289 0.06758 -0.074786 0.23588 -0.30092 -0.61376 -0.0025065 -0.0021891 -0.018999 -0.052415 -0.43779 -0.002513 0.26606 0.12694
block -0.057079 0.69374 0.30759 0.058917 -0.10119 -0.19896 0.075958 -0.23486 0.010738 -0.29926 0.1855 0.14995 0.20817 0.099272 -0.075706 -0.6532 -0.22813 -0.4238 -0.39851 -0.13471 -0.15085 0.079689 -0.14458 0.072343 0.41057 -0.43498 0.62378 -0.04845 0.54601 0.37592 -0.29512 -0.0024967 -0.1646 -0.16276 -0.33697 0.0052692 0.54809 -0.37049 0.22617 -0.47007 0.014177 -0.23092 0.051313 -0.031428 0.32199 0.27181 0.037761 0.42688 -0.19368 0.15603 0.11585 0.10163 -0.18313 -0.20692 -0.4319 -0.4497 -0.21717 -0.22845 0.11367 -0.027624 -0.07227 0.067172 -0.061606 0.30666 0.03219 0.23365 -0.12916 0.25907 -0.25322 -0.20058 -0.066661 0.37703 0.54088 -0.29278 -0.33738 0.43842 -0.26397 0.96936 0.27311 0.30259 0.032124 -0.13403 0.33835 -0.039586 0.30578 -0.65289 -0.16716 0.10731 0.20355 -0.14795 -0.043001 -0.48282 -0.079747 -0.55429 0.26166 0.062769 -0.24799 -0.058332 0.33726 0.010372
fear 0.20796 0.4446 0.02665 -0.13105 -0.081569 -0.41882 -0.096892 -0.13041 0.20292 -0.30822 -0.51085 0.41237 0.14647 -0.098654 -0.092221 -0.19761 -0.25981 -0.32207 -0.4905 -0.52855 -0.6523 0.16943 -0.064837 0.048878 0.32241 0.044427 0.49289 0.18756 -0.40843 -0.27169 0.35158 0.073379 -0.26564 -0.27584 -0.37497 0.31731 0.080621 -0.10011 0.061629 -0.32746 0.036414 -0.2136 0.11216 -0.10957 0.12527 0.14823 -0.18248 0.098309 -0.31176 0.16654 0.6029 -0.36007 -0.38558 0.51152 0.027269 -0.2387 -0.14881 0.48032 -0.087818 -0.0052951 0.31562 0.06863 0.4698 0.17781 0.50271 -0.1303 0.14105 -0.62698 -0.28714 -0.35018 -0.27897 0.40362 0.59258 -0.48226 0.064695 -0.061779 0.01696 0.22116 -0.017992 0.33553 0.26931 0.032784 0.095682 -0.14381 0.063331 0.22585 -0.40937 0.069097 0.43894 0.027386 0.27959 -0.3876 0.37895 0.43671 0.43273 -0.34502 0.0084635 -0.12711 -0.1387 -0.062414
surface 0.64424 -0.71242 0.070859 0.063042 0.12872 -0.28469 -0.27661 -0.073235 -0.23235 0.031486 -0.048322 0.013671 0.58451 -0.33788 -0.21713 -0.47114 0.17374 -0.66129 -0.12819 -0.38838 -0.033643 -0.23424 -0.13339 -0.027445 -0.028625 0.16623 0.23538 0.31985 -0.76099 0.45469 -0.11691 0.48037 -0.11839 -0.016812 -0.1211 -0.10946 0.019009 0.018725 0.075083 0.032753 -0.47979 -0.13712 0.5058 -0.23331 0.34077 0.12506 0.020466 0.60358 -0.2371 -0.23424 -0.13428 0.19673 0.33712 0.76701 -0.42399 -0.27851 4.2263E-4 -0.33244 0.67551 -0.064848 0.55951 -0.062621 0.24946 0.54202 -0.030269 -0.82959 -0.37814 0.08732 0.32286 -0.29496 -0.34923 0.1958 -0.27901 0.074759 -0.38878 0.30701 0.44687 0.20245 0.34397 -0.15218 0.50277 0.034135 0.11802 -0.0015822 -0.067483 0.059178 0.20346 0.37004 0.35225 0.0078363 0.048416 -0.0099085 0.30702 0.19905 0.5105 -0.10758 -0.67228 -0.014004 0.50789 0.352
issue -0.29368 -0.26292 -0.069044 -0.65994 0.13183 -0.031321 0.2892 -0.35633 0.16298 0.091692 -0.63401 0.38256 0.46985 0.14453 0.51286 -0.37822 0.10895 -0.40867 -0.14964 0.1715 0.2189 -0.20457 -0.039011 -0.040713 -0.010564 0.21302 0.84397 -0.13032 0.1437 0.024268 -0.050777 0.31956 0.477 0.22673 -0.37267 -0.19164 0.25832 -0.58044 0.36044 0.072179 0.06432 -0.16742 -0.36712 -0.28789 0.3187 -0.29694 0.13097 0.42694 0.25365 0.38194 0.37957 -0.64267 -0.20613 0.47515 -0.19321 -0.23338 -0.29434 0.11523 0.049919 0.27864 -0.0039492 -0.51783 0.0011753 0.1527 0.067408 -0.27985 -0.53777 -0.027672 -0.34856 -0.35752 -0.13326 -0.15351 0.1366 0.035218 -0.082474 -0.29476 0.12922 0.58837 -0.2136 0.06028 0.21611 0.14235 0.20775 -0.037494 0.31242 -0.0027059 0.26393 0.13048 0.35821 -0.051632 0.069309 -0.22126 0.25058 0.41183 0.3285 -0.06452 0.26624 -0.11288 0.4328 -0.27681
metal 0.044496 -0.019912 0.0066791 0.3407 -0.090065 -0.49948 -0.25004 -0.7153 0.19918 0.04564 0.43489 0.1404 0.52584 -0.19707 -0.67001 -0.5794 -0.11726 -0.32267 -0.29855 -1.0777 -0.47958 -0.43013 -0.079412 -0.019358 0.38092 -0.50408 0.14626 0.51626 -0.17063 0.20732 -0.15815 0.062551 0.024166 -0.067681 0.49595 0.48492 -0.044118 0.15759 -0.068375 0.053591 0.21428 -0.086434 0.27157 -0.060679 0.52082 -0.30848 0.076884 0.56786 -0.46952 -0.026555 -0.1678 0.18053 0.031647 -0.12515 -0.039887 -0.33481 -0.14896 -1.1117 0.35832 0.60135 0.44527 0.09331 0.38285 0.11995 0.086605 -0.67159 -0.58258 -0.022363 -0.20156 -0.61564 -0.29437 0.24707 -0.048153 -0.075889 -0.06193 0.16948 0.10211 0.32844 -0.49118 0.16757 0.43783 -0.21934 0.40418 0.23372 -0.1551 -0.14956 -0.26164 0.069507 0.15323 -0.12636 0.2043 -0.77814 0.084766 0.23378 0.41302 -0.66055 -0.48267 -0.15522 0.07619 0.21877
